digraph Tree {
node [shape=box, style="filled, rounded", color="black", fontname=helvetica] ;
edge [fontname=helvetica] ;
0 [label="AP <= -0.886\nmse = 1.001\nsamples = 4723\nvalue = -0.02", fillcolor="#f1bb94"] ;
1 [label="MolLogP <= 0.053\nmse = 1.184\nsamples = 1955\nvalue = 0.334", fillcolor="#efb287"] ;
0 -> 1 [labeldistance=2.5, labelangle=45, headlabel="True"] ;
2 [label="MolWt <= -0.31\nmse = 0.824\nsamples = 1294\nvalue = 0.832", fillcolor="#eda674"] ;
1 -> 2 ;
3 [label="MolLogP <= -0.178\nmse = 0.73\nsamples = 886\nvalue = 0.993", fillcolor="#eca26d"] ;
2 -> 3 ;
4 [label="NumRotatableBonds <= -1.123\nmse = 0.787\nsamples = 695\nvalue = 1.145", fillcolor="#eb9f68"] ;
3 -> 4 ;
5 [label="MolLogP <= -0.684\nmse = 1.413\nsamples = 257\nvalue = 0.896", fillcolor="#eca571"] ;
4 -> 5 ;
6 [label="MolWt <= -1.541\nmse = 1.103\nsamples = 123\nvalue = 1.079", fillcolor="#eba06a"] ;
5 -> 6 ;
7 [label="MolLogP <= -0.789\nmse = 1.16\nsamples = 44\nvalue = 1.396", fillcolor="#ea995e"] ;
6 -> 7 ;
8 [label="MolLogP <= -2.162\nmse = 0.703\nsamples = 31\nvalue = 1.604", fillcolor="#e99356"] ;
7 -> 8 ;
9 [label="MolWt <= -1.709\nmse = 0.814\nsamples = 4\nvalue = 0.928", fillcolor="#eca470"] ;
8 -> 9 ;
10 [label="mse = 0.374\nsamples = 2\nvalue = -0.015", fillcolor="#f1bb94"] ;
9 -> 10 ;
11 [label="mse = 0.119\nsamples = 2\nvalue = 1.556", fillcolor="#e99558"] ;
9 -> 11 ;
12 [label="MolLogP <= -1.346\nmse = 0.627\nsamples = 27\nvalue = 1.687", fillcolor="#e89153"] ;
8 -> 12 ;
13 [label="MolWt <= -3.653\nmse = 0.297\nsamples = 11\nvalue = 1.941", fillcolor="#e78b49"] ;
12 -> 13 ;
14 [label="mse = 0.172\nsamples = 2\nvalue = 2.364", fillcolor="#e58139"] ;
13 -> 14 ;
15 [label="MolLogP <= -1.669\nmse = 0.276\nsamples = 9\nvalue = 1.85", fillcolor="#e88e4d"] ;
13 -> 15 ;
16 [label="MolWt <= -2.152\nmse = 0.342\nsamples = 6\nvalue = 1.679", fillcolor="#e89253"] ;
15 -> 16 ;
17 [label="mse = 0.313\nsamples = 3\nvalue = 1.216", fillcolor="#eb9d65"] ;
16 -> 17 ;
18 [label="mse = 0.057\nsamples = 3\nvalue = 2.049", fillcolor="#e78945"] ;
16 -> 18 ;
19 [label="mse = 0.011\nsamples = 3\nvalue = 2.158", fillcolor="#e68641"] ;
15 -> 19 ;
20 [label="MolWt <= -1.708\nmse = 0.783\nsamples = 16\nvalue = 1.507", fillcolor="#e9965a"] ;
12 -> 20 ;
21 [label="MolWt <= -2.435\nmse = 0.737\nsamples = 14\nvalue = 1.364", fillcolor="#ea995f"] ;
20 -> 21 ;
22 [label="mse = 0.043\nsamples = 3\nvalue = 2.068", fillcolor="#e68844"] ;
21 -> 22 ;
23 [label="MolWt <= -2.059\nmse = 0.749\nsamples = 11\nvalue = 1.13", fillcolor="#eb9f68"] ;
21 -> 23 ;
24 [label="mse = 0.146\nsamples = 3\nvalue = 0.581", fillcolor="#eeac7d"] ;
23 -> 24 ;
25 [label="MolLogP <= -1.077\nmse = 0.819\nsamples = 8\nvalue = 1.33", fillcolor="#ea9a61"] ;
23 -> 25 ;
26 [label="mse = 0.047\nsamples = 2\nvalue = -0.335", fillcolor="#f3c3a0"] ;
25 -> 26 ;
27 [label="MolWt <= -1.814\nmse = 0.238\nsamples = 6\nvalue = 1.7", fillcolor="#e89152"] ;
25 -> 27 ;
28 [label="mse = 0.143\nsamples = 3\nvalue = 1.446", fillcolor="#ea975c"] ;
27 -> 28 ;
29 [label="mse = 0.174\nsamples = 3\nvalue = 2.017", fillcolor="#e78946"] ;
27 -> 29 ;
30 [label="mse = 0.398\nsamples = 2\nvalue = 2.221", fillcolor="#e6843e"] ;
20 -> 30 ;
31 [label="MolLogP <= -0.762\nmse = 1.858\nsamples = 13\nvalue = 0.939", fillcolor="#eca46f"] ;
7 -> 31 ;
32 [label="mse = 0.279\nsamples = 3\nvalue = -0.645", fillcolor="#f4caac"] ;
31 -> 32 ;
33 [label="MolLogP <= -0.709\nmse = 1.322\nsamples = 10\nvalue = 1.434", fillcolor="#ea985d"] ;
31 -> 33 ;
34 [label="MolWt <= -2.461\nmse = 1.511\nsamples = 6\nvalue = 1.08", fillcolor="#eba06a"] ;
33 -> 34 ;
35 [label="mse = 1.012\nsamples = 3\nvalue = 0.101", fillcolor="#f0b88f"] ;
34 -> 35 ;
36 [label="mse = 0.464\nsamples = 3\nvalue = 1.895", fillcolor="#e78c4b"] ;
34 -> 36 ;
37 [label="MolLogP <= -0.688\nmse = 0.021\nsamples = 4\nvalue = 2.215", fillcolor="#e6853f"] ;
33 -> 37 ;
38 [label="mse = 0.029\nsamples = 2\nvalue = 2.239", fillcolor="#e6843e"] ;
37 -> 38 ;
39 [label="mse = 0.007\nsamples = 2\nvalue = 2.179", fillcolor="#e68640"] ;
37 -> 39 ;
40 [label="MolLogP <= -1.446\nmse = 0.995\nsamples = 79\nvalue = 0.914", fillcolor="#eca470"] ;
6 -> 40 ;
41 [label="MolLogP <= -2.208\nmse = 0.872\nsamples = 33\nvalue = 1.206", fillcolor="#eb9d65"] ;
40 -> 41 ;
42 [label="MolLogP <= -2.281\nmse = 1.268\nsamples = 16\nvalue = 0.708", fillcolor="#eda978"] ;
41 -> 42 ;
43 [label="MolWt <= -0.659\nmse = 0.827\nsamples = 14\nvalue = 1.004", fillcolor="#eca26d"] ;
42 -> 43 ;
44 [label="MolWt <= -1.041\nmse = 1.079\nsamples = 8\nvalue = 0.726", fillcolor="#eda978"] ;
43 -> 44 ;
45 [label="MolLogP <= -2.56\nmse = 0.404\nsamples = 5\nvalue = 1.16", fillcolor="#eb9e67"] ;
44 -> 45 ;
46 [label="mse = 0.406\nsamples = 3\nvalue = 0.95", fillcolor="#eca36f"] ;
45 -> 46 ;
47 [label="mse = 0.013\nsamples = 2\nvalue = 1.686", fillcolor="#e89153"] ;
45 -> 47 ;
48 [label="mse = 1.353\nsamples = 3\nvalue = -0.034", fillcolor="#f1bb95"] ;
44 -> 48 ;
49 [label="MolWt <= -0.621\nmse = 0.227\nsamples = 6\nvalue = 1.386", fillcolor="#ea995e"] ;
43 -> 49 ;
50 [label="mse = 0.45\nsamples = 3\nvalue = 1.132", fillcolor="#eb9f68"] ;
49 -> 50 ;
51 [label="mse = 0.031\nsamples = 3\nvalue = 1.539", fillcolor="#e99559"] ;
49 -> 51 ;
52 [label="mse = 0.001\nsamples = 2\nvalue = -1.165", fillcolor="#f7d7c0"] ;
42 -> 52 ;
53 [label="MolLogP <= -1.59\nmse = 0.113\nsamples = 17\nvalue = 1.644", fillcolor="#e99355"] ;
41 -> 53 ;
54 [label="MolWt <= -0.969\nmse = 0.055\nsamples = 13\nvalue = 1.724", fillcolor="#e89151"] ;
53 -> 54 ;
55 [label="MolLogP <= -2.047\nmse = 0.008\nsamples = 5\nvalue = 1.892", fillcolor="#e78c4b"] ;
54 -> 55 ;
56 [label="mse = 0.0\nsamples = 2\nvalue = 1.787", fillcolor="#e88f4f"] ;
55 -> 56 ;
57 [label="mse = 0.001\nsamples = 3\nvalue = 1.963", fillcolor="#e78b48"] ;
55 -> 57 ;
58 [label="MolWt <= -0.609\nmse = 0.058\nsamples = 8\nvalue = 1.659", fillcolor="#e99254"] ;
54 -> 58 ;
59 [label="MolWt <= -0.775\nmse = 0.041\nsamples = 5\nvalue = 1.534", fillcolor="#e99559"] ;
58 -> 59 ;
60 [label="mse = 0.018\nsamples = 3\nvalue = 1.582", fillcolor="#e99457"] ;
59 -> 60 ;
61 [label="mse = 0.079\nsamples = 2\nvalue = 1.413", fillcolor="#ea985d"] ;
59 -> 61 ;
62 [label="mse = 0.037\nsamples = 3\nvalue = 1.805", fillcolor="#e88f4e"] ;
58 -> 62 ;
63 [label="MolLogP <= -1.48\nmse = 0.203\nsamples = 4\nvalue = 1.438", fillcolor="#ea985c"] ;
53 -> 63 ;
64 [label="mse = 0.249\nsamples = 2\nvalue = 1.23", fillcolor="#eb9d64"] ;
63 -> 64 ;
65 [label="mse = 0.112\nsamples = 2\nvalue = 1.594", fillcolor="#e99456"] ;
63 -> 65 ;
66 [label="MolLogP <= -1.335\nmse = 0.988\nsamples = 46\nvalue = 0.747", fillcolor="#eda877"] ;
40 -> 66 ;
67 [label="MolLogP <= -1.353\nmse = 1.137\nsamples = 10\nvalue = -0.085", fillcolor="#f1bd97"] ;
66 -> 67 ;
68 [label="MolLogP <= -1.378\nmse = 1.3\nsamples = 7\nvalue = 0.367", fillcolor="#efb285"] ;
67 -> 68 ;
69 [label="MolWt <= -0.583\nmse = 0.906\nsamples = 5\nvalue = -0.033", fillcolor="#f1bb95"] ;
68 -> 69 ;
70 [label="mse = 1.177\nsamples = 3\nvalue = 0.381", fillcolor="#efb185"] ;
69 -> 70 ;
71 [label="mse = 0.129\nsamples = 2\nvalue = -0.53", fillcolor="#f4c7a8"] ;
69 -> 71 ;
72 [label="mse = 0.0\nsamples = 2\nvalue = 1.836", fillcolor="#e88e4d"] ;
68 -> 72 ;
73 [label="mse = 0.222\nsamples = 3\nvalue = -0.717", fillcolor="#f4ccaf"] ;
67 -> 73 ;
74 [label="MolLogP <= -0.748\nmse = 0.522\nsamples = 36\nvalue = 1.092", fillcolor="#eba06a"] ;
66 -> 74 ;
75 [label="MolLogP <= -0.784\nmse = 0.534\nsamples = 28\nvalue = 0.97", fillcolor="#eca36e"] ;
74 -> 75 ;
76 [label="MolLogP <= -1.103\nmse = 0.429\nsamples = 25\nvalue = 1.049", fillcolor="#eca16b"] ;
75 -> 76 ;
77 [label="MolLogP <= -1.277\nmse = 0.484\nsamples = 8\nvalue = 0.737", fillcolor="#eda977"] ;
76 -> 77 ;
78 [label="MolWt <= -0.856\nmse = 0.196\nsamples = 4\nvalue = 1.158", fillcolor="#eb9e67"] ;
77 -> 78 ;
79 [label="mse = 0.097\nsamples = 2\nvalue = 0.705", fillcolor="#eda978"] ;
78 -> 79 ;
80 [label="mse = 0.035\nsamples = 2\nvalue = 1.46", fillcolor="#ea975c"] ;
78 -> 80 ;
81 [label="MolLogP <= -1.204\nmse = 0.484\nsamples = 4\nvalue = 0.475", fillcolor="#eeaf81"] ;
77 -> 81 ;
82 [label="mse = 0.127\nsamples = 2\nvalue = -0.501", fillcolor="#f3c7a6"] ;
81 -> 82 ;
83 [label="mse = 0.18\nsamples = 2\nvalue = 0.8", fillcolor="#eda775"] ;
81 -> 83 ;
84 [label="MolWt <= -1.327\nmse = 0.329\nsamples = 17\nvalue = 1.205", fillcolor="#eb9d65"] ;
76 -> 84 ;
85 [label="mse = 0.011\nsamples = 3\nvalue = 0.889", fillcolor="#eca571"] ;
84 -> 85 ;
86 [label="MolLogP <= -0.813\nmse = 0.366\nsamples = 14\nvalue = 1.262", fillcolor="#eb9c63"] ;
84 -> 86 ;
87 [label="MolLogP <= -0.96\nmse = 0.348\nsamples = 12\nvalue = 1.112", fillcolor="#eb9f69"] ;
86 -> 87 ;
88 [label="MolWt <= -0.598\nmse = 0.157\nsamples = 6\nvalue = 1.553", fillcolor="#e99558"] ;
87 -> 88 ;
89 [label="MolWt <= -0.739\nmse = 0.2\nsamples = 4\nvalue = 1.598", fillcolor="#e99456"] ;
88 -> 89 ;
90 [label="mse = 0.483\nsamples = 2\nvalue = 1.502", fillcolor="#e9965a"] ;
89 -> 90 ;
91 [label="mse = 0.001\nsamples = 2\nvalue = 1.662", fillcolor="#e99254"] ;
89 -> 91 ;
92 [label="mse = 0.077\nsamples = 2\nvalue = 1.479", fillcolor="#e9975b"] ;
88 -> 92 ;
93 [label="MolWt <= -0.742\nmse = 0.192\nsamples = 6\nvalue = 0.72", fillcolor="#eda978"] ;
87 -> 93 ;
94 [label="MolWt <= -0.909\nmse = 0.073\nsamples = 4\nvalue = 0.759", fillcolor="#eda876"] ;
93 -> 94 ;
95 [label="mse = 0.166\nsamples = 2\nvalue = 0.8", fillcolor="#eda775"] ;
94 -> 95 ;
96 [label="mse = 0.009\nsamples = 2\nvalue = 0.732", fillcolor="#eda977"] ;
94 -> 96 ;
97 [label="mse = 0.336\nsamples = 2\nvalue = 0.671", fillcolor="#edaa7a"] ;
93 -> 97 ;
98 [label="mse = 0.089\nsamples = 2\nvalue = 1.771", fillcolor="#e88f50"] ;
86 -> 98 ;
99 [label="mse = 0.904\nsamples = 3\nvalue = 0.198", fillcolor="#f0b68c"] ;
75 -> 99 ;
100 [label="MolLogP <= -0.735\nmse = 0.322\nsamples = 8\nvalue = 1.442", fillcolor="#ea975c"] ;
74 -> 100 ;
101 [label="mse = 0.116\nsamples = 2\nvalue = 1.769", fillcolor="#e88f50"] ;
100 -> 101 ;
102 [label="MolWt <= -0.718\nmse = 0.343\nsamples = 6\nvalue = 1.323", fillcolor="#ea9a61"] ;
100 -> 102 ;
103 [label="mse = 0.014\nsamples = 2\nvalue = 0.766", fillcolor="#eda876"] ;
102 -> 103 ;
104 [label="MolWt <= -0.452\nmse = 0.253\nsamples = 4\nvalue = 1.641", fillcolor="#e99355"] ;
102 -> 104 ;
105 [label="mse = 0.448\nsamples = 2\nvalue = 1.358", fillcolor="#ea995f"] ;
104 -> 105 ;
106 [label="mse = 0.002\nsamples = 2\nvalue = 1.852", fillcolor="#e88d4d"] ;
104 -> 106 ;
107 [label="MolWt <= -1.162\nmse = 1.639\nsamples = 134\nvalue = 0.727", fillcolor="#eda978"] ;
5 -> 107 ;
108 [label="MolLogP <= -0.682\nmse = 1.388\nsamples = 99\nvalue = 1.024", fillcolor="#eca26c"] ;
107 -> 108 ;
109 [label="MolWt <= -3.05\nmse = 0.824\nsamples = 5\nvalue = -0.654", fillcolor="#f4caac"] ;
108 -> 109 ;
110 [label="mse = 0.221\nsamples = 2\nvalue = -0.388", fillcolor="#f3c4a2"] ;
109 -> 110 ;
111 [label="mse = 1.148\nsamples = 3\nvalue = -0.832", fillcolor="#f5cfb3"] ;
109 -> 111 ;
112 [label="MolLogP <= -0.645\nmse = 1.307\nsamples = 94\nvalue = 1.082", fillcolor="#eba06a"] ;
108 -> 112 ;
113 [label="MolWt <= -1.645\nmse = 0.107\nsamples = 6\nvalue = 1.931", fillcolor="#e78c4a"] ;
112 -> 113 ;
114 [label="MolWt <= -2.527\nmse = 0.002\nsamples = 4\nvalue = 2.169", fillcolor="#e68640"] ;
113 -> 114 ;
115 [label="mse = 0.0\nsamples = 2\nvalue = 2.195", fillcolor="#e6853f"] ;
114 -> 115 ;
116 [label="mse = 0.002\nsamples = 2\nvalue = 2.133", fillcolor="#e68742"] ;
114 -> 116 ;
117 [label="mse = 0.018\nsamples = 2\nvalue = 1.514", fillcolor="#e9965a"] ;
113 -> 117 ;
118 [label="MolWt <= -3.02\nmse = 1.342\nsamples = 88\nvalue = 1.012", fillcolor="#eca26d"] ;
112 -> 118 ;
119 [label="MolWt <= -3.952\nmse = 1.063\nsamples = 13\nvalue = 0.399", fillcolor="#efb184"] ;
118 -> 119 ;
120 [label="mse = 0.875\nsamples = 2\nvalue = 1.5", fillcolor="#e9965a"] ;
119 -> 120 ;
121 [label="MolWt <= -3.61\nmse = 0.926\nsamples = 11\nvalue = 0.269", fillcolor="#f0b489"] ;
119 -> 121 ;
122 [label="mse = 0.458\nsamples = 3\nvalue = -0.764", fillcolor="#f5cdb1"] ;
121 -> 122 ;
123 [label="MolWt <= -3.52\nmse = 0.641\nsamples = 8\nvalue = 0.587", fillcolor="#eeac7d"] ;
121 -> 123 ;
124 [label="mse = 0.043\nsamples = 3\nvalue = 1.484", fillcolor="#e9965b"] ;
123 -> 124 ;
125 [label="MolLogP <= -0.472\nmse = 0.506\nsamples = 5\nvalue = 0.318", fillcolor="#efb387"] ;
123 -> 125 ;
126 [label="mse = 0.536\nsamples = 3\nvalue = -0.58", fillcolor="#f4c9a9"] ;
125 -> 126 ;
127 [label="mse = 0.0\nsamples = 2\nvalue = 0.703", fillcolor="#eda978"] ;
125 -> 127 ;
128 [label="MolLogP <= -0.578\nmse = 1.315\nsamples = 75\nvalue = 1.113", fillcolor="#eb9f69"] ;
118 -> 128 ;
129 [label="MolLogP <= -0.579\nmse = 2.047\nsamples = 20\nvalue = 0.46", fillcolor="#efaf82"] ;
128 -> 129 ;
130 [label="MolLogP <= -0.61\nmse = 2.059\nsamples = 14\nvalue = 0.792", fillcolor="#eda775"] ;
129 -> 130 ;
131 [label="MolWt <= -1.704\nmse = 2.141\nsamples = 6\nvalue = 0.167", fillcolor="#f0b68d"] ;
130 -> 131 ;
132 [label="MolLogP <= -0.617\nmse = 2.132\nsamples = 4\nvalue = -0.13", fillcolor="#f2be98"] ;
131 -> 132 ;
133 [label="mse = 2.965\nsamples = 2\nvalue = 0.808", fillcolor="#eda774"] ;
132 -> 133 ;
134 [label="mse = 0.019\nsamples = 2\nvalue = -0.933", fillcolor="#f6d1b7"] ;
132 -> 134 ;
135 [label="mse = 0.151\nsamples = 2\nvalue = 1.451", fillcolor="#ea975c"] ;
131 -> 135 ;
136 [label="MolWt <= -1.681\nmse = 1.008\nsamples = 8\nvalue = 1.507", fillcolor="#e9965a"] ;
130 -> 136 ;
137 [label="MolWt <= -2.352\nmse = 0.007\nsamples = 5\nvalue = 2.213", fillcolor="#e6853f"] ;
136 -> 137 ;
138 [label="mse = 0.002\nsamples = 2\nvalue = 2.312", fillcolor="#e5823b"] ;
137 -> 138 ;
139 [label="mse = 0.001\nsamples = 3\nvalue = 2.153", fillcolor="#e68641"] ;
137 -> 139 ;
140 [label="mse = 0.792\nsamples = 3\nvalue = 0.565", fillcolor="#eead7e"] ;
136 -> 140 ;
141 [label="MolWt <= -1.661\nmse = 0.036\nsamples = 6\nvalue = -0.786", fillcolor="#f5ceb1"] ;
129 -> 141 ;
142 [label="MolWt <= -2.477\nmse = 0.01\nsamples = 4\nvalue = -0.961", fillcolor="#f6d2b8"] ;
141 -> 142 ;
143 [label="mse = 0.012\nsamples = 2\nvalue = -0.985", fillcolor="#f6d2b9"] ;
142 -> 143 ;
144 [label="mse = 0.007\nsamples = 2\nvalue = -0.936", fillcolor="#f6d1b7"] ;
142 -> 144 ;
145 [label="mse = 0.0\nsamples = 2\nvalue = -0.611", fillcolor="#f4c9ab"] ;
141 -> 145 ;
146 [label="MolLogP <= -0.4\nmse = 0.65\nsamples = 55\nvalue = 1.431", fillcolor="#ea985d"] ;
128 -> 146 ;
147 [label="MolLogP <= -0.547\nmse = 0.517\nsamples = 31\nvalue = 1.678", fillcolor="#e89253"] ;
146 -> 147 ;
148 [label="MolWt <= -1.437\nmse = 0.164\nsamples = 9\nvalue = 1.988", fillcolor="#e78a47"] ;
147 -> 148 ;
149 [label="MolLogP <= -0.552\nmse = 0.028\nsamples = 7\nvalue = 2.087", fillcolor="#e68844"] ;
148 -> 149 ;
150 [label="MolWt <= -2.105\nmse = 0.037\nsamples = 5\nvalue = 2.02", fillcolor="#e78946"] ;
149 -> 150 ;
151 [label="mse = 0.032\nsamples = 3\nvalue = 2.058", fillcolor="#e78845"] ;
150 -> 151 ;
152 [label="mse = 0.035\nsamples = 2\nvalue = 1.906", fillcolor="#e78c4b"] ;
150 -> 152 ;
153 [label="mse = 0.006\nsamples = 2\nvalue = 2.164", fillcolor="#e68641"] ;
149 -> 153 ;
154 [label="mse = 0.565\nsamples = 2\nvalue = 1.245", fillcolor="#eb9c64"] ;
148 -> 154 ;
155 [label="MolLogP <= -0.515\nmse = 0.628\nsamples = 22\nvalue = 1.507", fillcolor="#e9965a"] ;
147 -> 155 ;
156 [label="MolLogP <= -0.526\nmse = 1.275\nsamples = 4\nvalue = 0.533", fillcolor="#eeae7f"] ;
155 -> 156 ;
157 [label="mse = 1.25\nsamples = 2\nvalue = 0.616", fillcolor="#eeac7c"] ;
156 -> 157 ;
158 [label="mse = 1.285\nsamples = 2\nvalue = 0.45", fillcolor="#efb082"] ;
156 -> 158 ;
159 [label="MolWt <= -2.663\nmse = 0.19\nsamples = 18\nvalue = 1.741", fillcolor="#e89051"] ;
155 -> 159 ;
160 [label="mse = 0.012\nsamples = 2\nvalue = 0.954", fillcolor="#eca36f"] ;
159 -> 160 ;
161 [label="MolLogP <= -0.467\nmse = 0.118\nsamples = 16\nvalue = 1.848", fillcolor="#e88e4d"] ;
159 -> 161 ;
162 [label="MolLogP <= -0.501\nmse = 0.057\nsamples = 10\nvalue = 1.958", fillcolor="#e78b49"] ;
161 -> 162 ;
163 [label="mse = 0.115\nsamples = 3\nvalue = 1.783", fillcolor="#e88f4f"] ;
162 -> 163 ;
164 [label="MolWt <= -2.224\nmse = 0.032\nsamples = 7\nvalue = 2.002", fillcolor="#e78a47"] ;
162 -> 164 ;
165 [label="mse = 0.139\nsamples = 2\nvalue = 1.867", fillcolor="#e78d4c"] ;
164 -> 165 ;
166 [label="MolWt <= -1.824\nmse = 0.007\nsamples = 5\nvalue = 2.029", fillcolor="#e78946"] ;
164 -> 166 ;
167 [label="mse = 0.006\nsamples = 3\nvalue = 2.056", fillcolor="#e78845"] ;
166 -> 167 ;
168 [label="mse = 0.005\nsamples = 2\nvalue = 1.988", fillcolor="#e78a47"] ;
166 -> 168 ;
169 [label="MolLogP <= -0.437\nmse = 0.17\nsamples = 6\nvalue = 1.614", fillcolor="#e99356"] ;
161 -> 169 ;
170 [label="mse = 0.04\nsamples = 3\nvalue = 1.664", fillcolor="#e99254"] ;
169 -> 170 ;
171 [label="mse = 0.265\nsamples = 3\nvalue = 1.575", fillcolor="#e99457"] ;
169 -> 171 ;
172 [label="MolLogP <= -0.373\nmse = 0.61\nsamples = 24\nvalue = 1.037", fillcolor="#eca16c"] ;
146 -> 172 ;
173 [label="mse = 2.524\nsamples = 2\nvalue = -0.199", fillcolor="#f2bf9b"] ;
172 -> 173 ;
174 [label="MolLogP <= -0.342\nmse = 0.209\nsamples = 22\nvalue = 1.174", fillcolor="#eb9e66"] ;
172 -> 174 ;
175 [label="mse = 0.05\nsamples = 3\nvalue = 1.784", fillcolor="#e88f4f"] ;
174 -> 175 ;
176 [label="MolLogP <= -0.286\nmse = 0.161\nsamples = 19\nvalue = 1.068", fillcolor="#eca16b"] ;
174 -> 176 ;
177 [label="MolWt <= -1.875\nmse = 0.105\nsamples = 5\nvalue = 0.889", fillcolor="#eca571"] ;
176 -> 177 ;
178 [label="mse = 0.007\nsamples = 2\nvalue = 0.652", fillcolor="#eeab7a"] ;
177 -> 178 ;
179 [label="mse = 0.09\nsamples = 3\nvalue = 1.127", fillcolor="#eb9f68"] ;
177 -> 179 ;
180 [label="MolWt <= -1.964\nmse = 0.165\nsamples = 14\nvalue = 1.131", fillcolor="#eb9f68"] ;
176 -> 180 ;
181 [label="MolLogP <= -0.236\nmse = 0.032\nsamples = 6\nvalue = 0.859", fillcolor="#eda672"] ;
180 -> 181 ;
182 [label="mse = 0.059\nsamples = 2\nvalue = 0.959", fillcolor="#eca36f"] ;
181 -> 182 ;
183 [label="MolLogP <= -0.189\nmse = 0.011\nsamples = 4\nvalue = 0.81", fillcolor="#eda774"] ;
181 -> 183 ;
184 [label="mse = 0.015\nsamples = 2\nvalue = 0.793", fillcolor="#eda775"] ;
183 -> 184 ;
185 [label="mse = 0.007\nsamples = 2\nvalue = 0.827", fillcolor="#eda674"] ;
183 -> 185 ;
186 [label="MolWt <= -1.609\nmse = 0.139\nsamples = 8\nvalue = 1.436", fillcolor="#ea985c"] ;
180 -> 186 ;
187 [label="MolLogP <= -0.251\nmse = 0.072\nsamples = 4\nvalue = 1.573", fillcolor="#e99457"] ;
186 -> 187 ;
188 [label="mse = 0.027\nsamples = 2\nvalue = 1.528", fillcolor="#e99559"] ;
187 -> 188 ;
189 [label="mse = 0.112\nsamples = 2\nvalue = 1.618", fillcolor="#e99356"] ;
187 -> 189 ;
190 [label="MolLogP <= -0.256\nmse = 0.169\nsamples = 4\nvalue = 1.3", fillcolor="#ea9b62"] ;
186 -> 190 ;
191 [label="mse = 0.268\nsamples = 2\nvalue = 1.483", fillcolor="#e9965b"] ;
190 -> 191 ;
192 [label="mse = 0.002\nsamples = 2\nvalue = 1.117", fillcolor="#eb9f69"] ;
190 -> 192 ;
193 [label="MolLogP <= -0.544\nmse = 1.512\nsamples = 35\nvalue = 0.003", fillcolor="#f1ba93"] ;
107 -> 193 ;
194 [label="MolWt <= -0.836\nmse = 1.418\nsamples = 21\nvalue = -0.505", fillcolor="#f3c7a7"] ;
193 -> 194 ;
195 [label="MolLogP <= -0.556\nmse = 1.293\nsamples = 11\nvalue = -0.154", fillcolor="#f2be99"] ;
194 -> 195 ;
196 [label="MolLogP <= -0.63\nmse = 1.218\nsamples = 9\nvalue = 0.183", fillcolor="#f0b68c"] ;
195 -> 196 ;
197 [label="MolLogP <= -0.647\nmse = 0.817\nsamples = 5\nvalue = -0.146", fillcolor="#f2be99"] ;
196 -> 197 ;
198 [label="mse = 0.351\nsamples = 3\nvalue = 0.774", fillcolor="#eda876"] ;
197 -> 198 ;
199 [label="mse = 0.186\nsamples = 2\nvalue = -0.76", fillcolor="#f5cdb0"] ;
197 -> 199 ;
200 [label="MolWt <= -0.971\nmse = 1.405\nsamples = 4\nvalue = 0.733", fillcolor="#eda977"] ;
196 -> 200 ;
201 [label="mse = 1.962\nsamples = 2\nvalue = 0.556", fillcolor="#eead7e"] ;
200 -> 201 ;
202 [label="mse = 0.103\nsamples = 2\nvalue = 1.086", fillcolor="#eba06a"] ;
200 -> 202 ;
203 [label="mse = 0.003\nsamples = 2\nvalue = -1.234", fillcolor="#f7d8c2"] ;
195 -> 203 ;
204 [label="MolLogP <= -0.578\nmse = 1.283\nsamples = 10\nvalue = -0.873", fillcolor="#f5d0b5"] ;
194 -> 204 ;
205 [label="MolWt <= -0.703\nmse = 0.327\nsamples = 8\nvalue = -1.32", fillcolor="#f7dbc6"] ;
204 -> 205 ;
206 [label="mse = 0.04\nsamples = 2\nvalue = -1.849", fillcolor="#fae7da"] ;
205 -> 206 ;
207 [label="MolLogP <= -0.628\nmse = 0.273\nsamples = 6\nvalue = -1.08", fillcolor="#f6d5bd"] ;
205 -> 207 ;
208 [label="mse = 0.001\nsamples = 2\nvalue = -0.413", fillcolor="#f3c5a3"] ;
207 -> 208 ;
209 [label="MolWt <= -0.529\nmse = 0.146\nsamples = 4\nvalue = -1.331", fillcolor="#f8dbc6"] ;
207 -> 209 ;
210 [label="mse = 0.151\nsamples = 2\nvalue = -1.067", fillcolor="#f6d4bc"] ;
209 -> 210 ;
211 [label="mse = 0.001\nsamples = 2\nvalue = -1.595", fillcolor="#f9e1d0"] ;
209 -> 211 ;
212 [label="mse = 1.109\nsamples = 2\nvalue = 0.915", fillcolor="#eca470"] ;
204 -> 212 ;
213 [label="MolWt <= -0.99\nmse = 0.21\nsamples = 14\nvalue = 0.995", fillcolor="#eca26d"] ;
193 -> 213 ;
214 [label="mse = 0.057\nsamples = 3\nvalue = 1.532", fillcolor="#e99559"] ;
213 -> 214 ;
215 [label="MolLogP <= -0.23\nmse = 0.11\nsamples = 11\nvalue = 0.78", fillcolor="#eda876"] ;
213 -> 215 ;
216 [label="MolWt <= -0.799\nmse = 0.048\nsamples = 8\nvalue = 0.664", fillcolor="#eeaa7a"] ;
215 -> 216 ;
217 [label="MolLogP <= -0.485\nmse = 0.056\nsamples = 4\nvalue = 0.734", fillcolor="#eda977"] ;
216 -> 217 ;
218 [label="mse = 0.038\nsamples = 2\nvalue = 0.554", fillcolor="#eead7e"] ;
217 -> 218 ;
219 [label="mse = 0.04\nsamples = 2\nvalue = 0.825", fillcolor="#eda674"] ;
217 -> 219 ;
220 [label="MolLogP <= -0.388\nmse = 0.026\nsamples = 4\nvalue = 0.581", fillcolor="#eeac7d"] ;
216 -> 220 ;
221 [label="mse = 0.039\nsamples = 2\nvalue = 0.546", fillcolor="#eead7e"] ;
220 -> 221 ;
222 [label="mse = 0.003\nsamples = 2\nvalue = 0.632", fillcolor="#eeab7b"] ;
220 -> 222 ;
223 [label="mse = 0.145\nsamples = 3\nvalue = 1.097", fillcolor="#eba069"] ;
215 -> 223 ;
224 [label="MolWt <= -1.43\nmse = 0.346\nsamples = 438\nvalue = 1.296", fillcolor="#ea9b62"] ;
4 -> 224 ;
225 [label="MolLogP <= -0.442\nmse = 0.277\nsamples = 122\nvalue = 1.516", fillcolor="#e99659"] ;
224 -> 225 ;
226 [label="MolWt <= -2.219\nmse = 0.265\nsamples = 62\nvalue = 1.788", fillcolor="#e88f4f"] ;
225 -> 226 ;
227 [label="MolLogP <= -0.51\nmse = 0.03\nsamples = 8\nvalue = 2.165", fillcolor="#e68641"] ;
226 -> 227 ;
228 [label="MolLogP <= -0.669\nmse = 0.0\nsamples = 6\nvalue = 2.234", fillcolor="#e6843e"] ;
227 -> 228 ;
229 [label="MolWt <= -2.477\nmse = 0.0\nsamples = 4\nvalue = 2.239", fillcolor="#e6843e"] ;
228 -> 229 ;
230 [label="mse = 0.0\nsamples = 2\nvalue = 2.242", fillcolor="#e6843e"] ;
229 -> 230 ;
231 [label="mse = 0.0\nsamples = 2\nvalue = 2.231", fillcolor="#e6843e"] ;
229 -> 231 ;
232 [label="mse = 0.0\nsamples = 2\nvalue = 2.225", fillcolor="#e6843e"] ;
228 -> 232 ;
233 [label="mse = 0.061\nsamples = 2\nvalue = 1.992", fillcolor="#e78a47"] ;
227 -> 233 ;
234 [label="MolWt <= -2.084\nmse = 0.277\nsamples = 54\nvalue = 1.724", fillcolor="#e89151"] ;
226 -> 234 ;
235 [label="mse = 1.959\nsamples = 2\nvalue = 0.762", fillcolor="#eda876"] ;
234 -> 235 ;
236 [label="MolWt <= -1.677\nmse = 0.212\nsamples = 52\nvalue = 1.748", fillcolor="#e89051"] ;
234 -> 236 ;
237 [label="MolWt <= -1.707\nmse = 0.101\nsamples = 22\nvalue = 1.887", fillcolor="#e78d4b"] ;
236 -> 237 ;
238 [label="MolLogP <= -0.565\nmse = 0.121\nsamples = 17\nvalue = 1.796", fillcolor="#e88f4f"] ;
237 -> 238 ;
239 [label="MolWt <= -1.738\nmse = 0.097\nsamples = 9\nvalue = 1.885", fillcolor="#e78d4b"] ;
238 -> 239 ;
240 [label="mse = 0.0\nsamples = 3\nvalue = 2.111", fillcolor="#e68743"] ;
239 -> 240 ;
241 [label="MolWt <= -1.727\nmse = 0.107\nsamples = 6\nvalue = 1.801", fillcolor="#e88f4f"] ;
239 -> 241 ;
242 [label="mse = 0.0\nsamples = 2\nvalue = 1.674", fillcolor="#e89253"] ;
241 -> 242 ;
243 [label="MolLogP <= -0.843\nmse = 0.155\nsamples = 4\nvalue = 1.877", fillcolor="#e78d4c"] ;
241 -> 243 ;
244 [label="mse = 0.209\nsamples = 2\nvalue = 1.736", fillcolor="#e89051"] ;
243 -> 244 ;
245 [label="mse = 0.0\nsamples = 2\nvalue = 2.087", fillcolor="#e68844"] ;
243 -> 245 ;
246 [label="mse = 0.128\nsamples = 8\nvalue = 1.721", fillcolor="#e89152"] ;
238 -> 246 ;
247 [label="MolLogP <= -0.647\nmse = 0.0\nsamples = 5\nvalue = 2.085", fillcolor="#e68844"] ;
237 -> 247 ;
248 [label="mse = 0.0\nsamples = 3\nvalue = 2.084", fillcolor="#e68844"] ;
247 -> 248 ;
249 [label="mse = 0.0\nsamples = 2\nvalue = 2.085", fillcolor="#e68844"] ;
247 -> 249 ;
250 [label="MolLogP <= -0.578\nmse = 0.27\nsamples = 30\nvalue = 1.642", fillcolor="#e99355"] ;
236 -> 250 ;
251 [label="MolLogP <= -0.684\nmse = 0.136\nsamples = 17\nvalue = 1.842", fillcolor="#e88e4d"] ;
250 -> 251 ;
252 [label="MolLogP <= -0.803\nmse = 0.045\nsamples = 8\nvalue = 2.038", fillcolor="#e78945"] ;
251 -> 252 ;
253 [label="MolLogP <= -1.332\nmse = 0.052\nsamples = 6\nvalue = 2.087", fillcolor="#e68844"] ;
252 -> 253 ;
254 [label="mse = 0.01\nsamples = 3\nvalue = 1.981", fillcolor="#e78a48"] ;
253 -> 254 ;
255 [label="mse = 0.073\nsamples = 3\nvalue = 2.193", fillcolor="#e68540"] ;
253 -> 255 ;
256 [label="mse = 0.0\nsamples = 2\nvalue = 1.908", fillcolor="#e78c4a"] ;
252 -> 256 ;
257 [label="NumRotatableBonds <= 0.005\nmse = 0.155\nsamples = 9\nvalue = 1.707", fillcolor="#e89152"] ;
251 -> 257 ;
258 [label="mse = 0.08\nsamples = 4\nvalue = 1.747", fillcolor="#e89051"] ;
257 -> 258 ;
259 [label="mse = 0.211\nsamples = 5\nvalue = 1.676", fillcolor="#e89253"] ;
257 -> 259 ;
260 [label="MolWt <= -1.456\nmse = 0.323\nsamples = 13\nvalue = 1.358", fillcolor="#ea995f"] ;
250 -> 260 ;
261 [label="NumRotatableBonds <= -0.422\nmse = 0.301\nsamples = 11\nvalue = 1.278", fillcolor="#ea9b62"] ;
260 -> 261 ;
262 [label="MolWt <= -1.609\nmse = 0.269\nsamples = 9\nvalue = 1.189", fillcolor="#eb9e66"] ;
261 -> 262 ;
263 [label="mse = 0.654\nsamples = 2\nvalue = 0.845", fillcolor="#eda673"] ;
262 -> 263 ;
264 [label="MolLogP <= -0.535\nmse = 0.123\nsamples = 7\nvalue = 1.282", fillcolor="#ea9b62"] ;
262 -> 264 ;
265 [label="mse = 0.019\nsamples = 2\nvalue = 1.024", fillcolor="#eca26c"] ;
264 -> 265 ;
266 [label="MolWt <= -1.493\nmse = 0.107\nsamples = 5\nvalue = 1.497", fillcolor="#e9965a"] ;
264 -> 266 ;
267 [label="mse = 0.146\nsamples = 3\nvalue = 1.585", fillcolor="#e99457"] ;
266 -> 267 ;
268 [label="mse = 0.052\nsamples = 2\nvalue = 1.41", fillcolor="#ea985d"] ;
266 -> 268 ;
269 [label="mse = 0.238\nsamples = 2\nvalue = 1.696", fillcolor="#e89153"] ;
261 -> 269 ;
270 [label="mse = -0.0\nsamples = 2\nvalue = 2.033", fillcolor="#e78946"] ;
260 -> 270 ;
271 [label="NumRotatableBonds <= -0.422\nmse = 0.122\nsamples = 60\nvalue = 1.221", fillcolor="#eb9d65"] ;
225 -> 271 ;
272 [label="MolWt <= -2.083\nmse = 0.127\nsamples = 27\nvalue = 1.374", fillcolor="#ea995f"] ;
271 -> 272 ;
273 [label="MolWt <= -2.148\nmse = 0.11\nsamples = 8\nvalue = 1.709", fillcolor="#e89152"] ;
272 -> 273 ;
274 [label="mse = 0.02\nsamples = 4\nvalue = 1.539", fillcolor="#e99559"] ;
273 -> 274 ;
275 [label="mse = 0.142\nsamples = 4\nvalue = 1.907", fillcolor="#e78c4a"] ;
273 -> 275 ;
276 [label="MolWt <= -1.502\nmse = 0.055\nsamples = 19\nvalue = 1.213", fillcolor="#eb9d65"] ;
272 -> 276 ;
277 [label="MolWt <= -1.738\nmse = 0.019\nsamples = 16\nvalue = 1.291", fillcolor="#ea9b62"] ;
276 -> 277 ;
278 [label="MolLogP <= -0.312\nmse = 0.011\nsamples = 12\nvalue = 1.313", fillcolor="#ea9b61"] ;
277 -> 278 ;
279 [label="MolLogP <= -0.385\nmse = 0.005\nsamples = 8\nvalue = 1.336", fillcolor="#ea9a60"] ;
278 -> 279 ;
280 [label="MolWt <= -1.77\nmse = 0.002\nsamples = 5\nvalue = 1.309", fillcolor="#ea9b61"] ;
279 -> 280 ;
281 [label="mse = 0.0\nsamples = 3\nvalue = 1.33", fillcolor="#ea9a61"] ;
280 -> 281 ;
282 [label="mse = 0.002\nsamples = 2\nvalue = 1.247", fillcolor="#eb9c64"] ;
280 -> 282 ;
283 [label="mse = 0.005\nsamples = 3\nvalue = 1.408", fillcolor="#ea985e"] ;
279 -> 283 ;
284 [label="MolWt <= -1.813\nmse = 0.019\nsamples = 4\nvalue = 1.276", fillcolor="#ea9b63"] ;
278 -> 284 ;
285 [label="mse = 0.025\nsamples = 2\nvalue = 1.301", fillcolor="#ea9b62"] ;
284 -> 285 ;
286 [label="mse = 0.0\nsamples = 2\nvalue = 1.214", fillcolor="#eb9d65"] ;
284 -> 286 ;
287 [label="MolWt <= -1.688\nmse = 0.043\nsamples = 4\nvalue = 1.195", fillcolor="#eb9d66"] ;
277 -> 287 ;
288 [label="mse = 0.009\nsamples = 2\nvalue = 1.03", fillcolor="#eca16c"] ;
287 -> 288 ;
289 [label="mse = 0.023\nsamples = 2\nvalue = 1.36", fillcolor="#ea995f"] ;
287 -> 289 ;
290 [label="mse = 0.064\nsamples = 3\nvalue = 0.868", fillcolor="#eda572"] ;
276 -> 290 ;
291 [label="MolLogP <= -0.396\nmse = 0.084\nsamples = 33\nvalue = 1.095", fillcolor="#eba069"] ;
271 -> 291 ;
292 [label="MolLogP <= -0.41\nmse = 0.208\nsamples = 7\nvalue = 1.295", fillcolor="#ea9b62"] ;
291 -> 292 ;
293 [label="MolLogP <= -0.419\nmse = 0.01\nsamples = 4\nvalue = 1.015", fillcolor="#eca26d"] ;
292 -> 293 ;
294 [label="mse = 0.016\nsamples = 2\nvalue = 1.001", fillcolor="#eca26d"] ;
293 -> 294 ;
295 [label="mse = 0.002\nsamples = 2\nvalue = 1.034", fillcolor="#eca16c"] ;
293 -> 295 ;
296 [label="mse = 0.063\nsamples = 3\nvalue = 1.948", fillcolor="#e78b49"] ;
292 -> 296 ;
297 [label="MolLogP <= -0.206\nmse = 0.04\nsamples = 26\nvalue = 1.044", fillcolor="#eca16b"] ;
291 -> 297 ;
298 [label="MolLogP <= -0.219\nmse = 0.04\nsamples = 20\nvalue = 0.99", fillcolor="#eca26d"] ;
297 -> 298 ;
299 [label="MolLogP <= -0.341\nmse = 0.027\nsamples = 18\nvalue = 1.021", fillcolor="#eca26c"] ;
298 -> 299 ;
300 [label="mse = 0.013\nsamples = 4\nvalue = 0.872", fillcolor="#eca572"] ;
299 -> 300 ;
301 [label="MolLogP <= -0.256\nmse = 0.024\nsamples = 14\nvalue = 1.048", fillcolor="#eca16b"] ;
299 -> 301 ;
302 [label="mse = 0.019\nsamples = 8\nvalue = 1.158", fillcolor="#eb9e67"] ;
301 -> 302 ;
303 [label="MolWt <= -1.769\nmse = 0.011\nsamples = 6\nvalue = 0.957", fillcolor="#eca36f"] ;
301 -> 303 ;
304 [label="mse = 0.002\nsamples = 3\nvalue = 0.866", fillcolor="#eda572"] ;
303 -> 304 ;
305 [label="mse = 0.002\nsamples = 3\nvalue = 1.048", fillcolor="#eca16b"] ;
303 -> 305 ;
306 [label="mse = 0.038\nsamples = 2\nvalue = 0.589", fillcolor="#eeac7d"] ;
298 -> 306 ;
307 [label="MolWt <= -1.641\nmse = 0.012\nsamples = 6\nvalue = 1.182", fillcolor="#eb9e66"] ;
297 -> 307 ;
308 [label="mse = 0.0\nsamples = 2\nvalue = 1.157", fillcolor="#eb9e67"] ;
307 -> 308 ;
309 [label="NumRotatableBonds <= 0.005\nmse = 0.016\nsamples = 4\nvalue = 1.191", fillcolor="#eb9e66"] ;
307 -> 309 ;
310 [label="mse = 0.043\nsamples = 2\nvalue = 1.18", fillcolor="#eb9e66"] ;
309 -> 310 ;
311 [label="mse = 0.0\nsamples = 2\nvalue = 1.197", fillcolor="#eb9d66"] ;
309 -> 311 ;
312 [label="MolWt <= -0.666\nmse = 0.346\nsamples = 316\nvalue = 1.212", fillcolor="#eb9d65"] ;
224 -> 312 ;
313 [label="MolLogP <= -0.264\nmse = 0.328\nsamples = 195\nvalue = 1.269", fillcolor="#ea9c63"] ;
312 -> 313 ;
314 [label="MolWt <= -1.233\nmse = 0.291\nsamples = 168\nvalue = 1.357", fillcolor="#ea995f"] ;
313 -> 314 ;
315 [label="NumRotatableBonds <= 0.005\nmse = 0.217\nsamples = 24\nvalue = 1.132", fillcolor="#eb9f68"] ;
314 -> 315 ;
316 [label="MolWt <= -1.236\nmse = 0.2\nsamples = 18\nvalue = 1.252", fillcolor="#eb9c64"] ;
315 -> 316 ;
317 [label="MolLogP <= -0.458\nmse = 0.18\nsamples = 16\nvalue = 1.18", fillcolor="#eb9e66"] ;
316 -> 317 ;
318 [label="NumRotatableBonds <= -0.422\nmse = 0.141\nsamples = 9\nvalue = 1.379", fillcolor="#ea995f"] ;
317 -> 318 ;
319 [label="MolWt <= -1.261\nmse = 0.106\nsamples = 5\nvalue = 1.297", fillcolor="#ea9b62"] ;
318 -> 319 ;
320 [label="mse = 0.052\nsamples = 3\nvalue = 1.506", fillcolor="#e9965a"] ;
319 -> 320 ;
321 [label="mse = 0.023\nsamples = 2\nvalue = 0.985", fillcolor="#eca36e"] ;
319 -> 321 ;
322 [label="MolWt <= -1.421\nmse = 0.163\nsamples = 4\nvalue = 1.46", fillcolor="#ea975c"] ;
318 -> 322 ;
323 [label="mse = 0.011\nsamples = 2\nvalue = 1.141", fillcolor="#eb9f68"] ;
322 -> 323 ;
324 [label="mse = 0.008\nsamples = 2\nvalue = 1.94", fillcolor="#e78b49"] ;
322 -> 324 ;
325 [label="MolWt <= -1.349\nmse = 0.147\nsamples = 7\nvalue = 0.999", fillcolor="#eca26d"] ;
317 -> 325 ;
326 [label="mse = 0.076\nsamples = 4\nvalue = 1.156", fillcolor="#eb9e67"] ;
325 -> 326 ;
327 [label="mse = 0.154\nsamples = 3\nvalue = 0.726", fillcolor="#eda978"] ;
325 -> 327 ;
328 [label="mse = 0.134\nsamples = 2\nvalue = 1.628", fillcolor="#e99355"] ;
316 -> 328 ;
329 [label="MolWt <= -1.36\nmse = 0.134\nsamples = 6\nvalue = 0.833", fillcolor="#eda674"] ;
315 -> 329 ;
330 [label="mse = 0.012\nsamples = 2\nvalue = 0.563", fillcolor="#eead7e"] ;
329 -> 330 ;
331 [label="mse = 0.142\nsamples = 4\nvalue = 0.948", fillcolor="#eca36f"] ;
329 -> 331 ;
332 [label="MolWt <= -1.132\nmse = 0.293\nsamples = 144\nvalue = 1.391", fillcolor="#ea995e"] ;
314 -> 332 ;
333 [label="MolLogP <= -0.392\nmse = 0.229\nsamples = 25\nvalue = 1.679", fillcolor="#e89253"] ;
332 -> 333 ;
334 [label="MolWt <= -1.205\nmse = 0.147\nsamples = 22\nvalue = 1.767", fillcolor="#e89050"] ;
333 -> 334 ;
335 [label="MolLogP <= -0.559\nmse = 0.206\nsamples = 6\nvalue = 1.469", fillcolor="#e9975b"] ;
334 -> 335 ;
336 [label="mse = 0.177\nsamples = 4\nvalue = 1.263", fillcolor="#eb9c63"] ;
335 -> 336 ;
337 [label="mse = 0.012\nsamples = 2\nvalue = 1.88", fillcolor="#e78d4b"] ;
335 -> 337 ;
338 [label="MolWt <= -1.197\nmse = 0.11\nsamples = 16\nvalue = 1.833", fillcolor="#e88e4d"] ;
334 -> 338 ;
339 [label="MolLogP <= -0.496\nmse = 0.002\nsamples = 6\nvalue = 1.958", fillcolor="#e78b49"] ;
338 -> 339 ;
340 [label="mse = 0.002\nsamples = 4\nvalue = 1.945", fillcolor="#e78b49"] ;
339 -> 340 ;
341 [label="mse = 0.0\nsamples = 2\nvalue = 1.988", fillcolor="#e78a47"] ;
339 -> 341 ;
342 [label="MolLogP <= -0.91\nmse = 0.159\nsamples = 10\nvalue = 1.759", fillcolor="#e89050"] ;
338 -> 342 ;
343 [label="mse = 0.111\nsamples = 2\nvalue = 0.751", fillcolor="#eda877"] ;
342 -> 343 ;
344 [label="MolWt <= -1.189\nmse = 0.011\nsamples = 8\nvalue = 1.894", fillcolor="#e78c4b"] ;
342 -> 344 ;
345 [label="mse = 0.006\nsamples = 2\nvalue = 1.805", fillcolor="#e88f4e"] ;
344 -> 345 ;
346 [label="NumRotatableBonds <= 0.311\nmse = 0.006\nsamples = 6\nvalue = 1.953", fillcolor="#e78b49"] ;
344 -> 346 ;
347 [label="mse = 0.011\nsamples = 3\nvalue = 1.916", fillcolor="#e78c4a"] ;
346 -> 347 ;
348 [label="mse = 0.0\nsamples = 3\nvalue = 1.982", fillcolor="#e78a48"] ;
346 -> 348 ;
349 [label="mse = 0.117\nsamples = 3\nvalue = 0.715", fillcolor="#eda978"] ;
333 -> 349 ;
350 [label="MolWt <= -1.098\nmse = 0.287\nsamples = 119\nvalue = 1.338", fillcolor="#ea9a60"] ;
332 -> 350 ;
351 [label="MolLogP <= -0.365\nmse = 1.485\nsamples = 4\nvalue = 0.569", fillcolor="#eead7e"] ;
350 -> 351 ;
352 [label="mse = 2.355\nsamples = 2\nvalue = 0.046", fillcolor="#f1b992"] ;
351 -> 352 ;
353 [label="mse = 0.069\nsamples = 2\nvalue = 1.091", fillcolor="#eba06a"] ;
351 -> 353 ;
354 [label="MolLogP <= -1.102\nmse = 0.21\nsamples = 115\nvalue = 1.371", fillcolor="#ea995f"] ;
350 -> 354 ;
355 [label="MolWt <= -0.774\nmse = 0.1\nsamples = 16\nvalue = 1.691", fillcolor="#e89153"] ;
354 -> 355 ;
356 [label="NumRotatableBonds <= -0.422\nmse = 0.249\nsamples = 5\nvalue = 1.455", fillcolor="#ea975c"] ;
355 -> 356 ;
357 [label="mse = 0.002\nsamples = 2\nvalue = 1.846", fillcolor="#e88e4d"] ;
356 -> 357 ;
358 [label="mse = 0.226\nsamples = 3\nvalue = 1.142", fillcolor="#eb9f68"] ;
356 -> 358 ;
359 [label="MolLogP <= -1.621\nmse = 0.007\nsamples = 11\nvalue = 1.788", fillcolor="#e88f4f"] ;
355 -> 359 ;
360 [label="mse = 0.0\nsamples = 3\nvalue = 1.715", fillcolor="#e89152"] ;
359 -> 360 ;
361 [label="MolWt <= -0.728\nmse = 0.005\nsamples = 8\nvalue = 1.848", fillcolor="#e88e4d"] ;
359 -> 361 ;
362 [label="MolLogP <= -1.255\nmse = 0.006\nsamples = 5\nvalue = 1.826", fillcolor="#e88e4e"] ;
361 -> 362 ;
363 [label="mse = 0.002\nsamples = 2\nvalue = 1.797", fillcolor="#e88f4f"] ;
362 -> 363 ;
364 [label="mse = 0.007\nsamples = 3\nvalue = 1.854", fillcolor="#e88d4c"] ;
362 -> 364 ;
365 [label="mse = 0.0\nsamples = 3\nvalue = 1.893", fillcolor="#e78c4b"] ;
361 -> 365 ;
366 [label="NumRotatableBonds <= -0.422\nmse = 0.207\nsamples = 99\nvalue = 1.308", fillcolor="#ea9b61"] ;
354 -> 366 ;
367 [label="MolWt <= -1.048\nmse = 0.194\nsamples = 14\nvalue = 1.598", fillcolor="#e99456"] ;
366 -> 367 ;
368 [label="mse = 0.002\nsamples = 3\nvalue = 1.202", fillcolor="#eb9d65"] ;
367 -> 368 ;
369 [label="MolLogP <= -0.616\nmse = 0.196\nsamples = 11\nvalue = 1.654", fillcolor="#e99254"] ;
367 -> 369 ;
370 [label="MolWt <= -0.93\nmse = 0.044\nsamples = 4\nvalue = 1.07", fillcolor="#eba06a"] ;
369 -> 370 ;
371 [label="mse = 0.0\nsamples = 2\nvalue = 1.059", fillcolor="#eca16b"] ;
370 -> 371 ;
372 [label="mse = 0.109\nsamples = 2\nvalue = 1.086", fillcolor="#eba06a"] ;
370 -> 372 ;
373 [label="MolWt <= -0.856\nmse = 0.104\nsamples = 7\nvalue = 1.837", fillcolor="#e88e4d"] ;
369 -> 373 ;
374 [label="MolWt <= -1.03\nmse = 0.075\nsamples = 5\nvalue = 1.919", fillcolor="#e78c4a"] ;
373 -> 374 ;
375 [label="mse = 0.132\nsamples = 2\nvalue = 1.776", fillcolor="#e88f4f"] ;
374 -> 375 ;
376 [label="mse = 0.009\nsamples = 3\nvalue = 2.022", fillcolor="#e78946"] ;
374 -> 376 ;
377 [label="mse = 0.108\nsamples = 2\nvalue = 1.589", fillcolor="#e99457"] ;
373 -> 377 ;
378 [label="NumRotatableBonds <= 0.745\nmse = 0.192\nsamples = 85\nvalue = 1.256", fillcolor="#eb9c63"] ;
366 -> 378 ;
379 [label="NumRotatableBonds <= 0.311\nmse = 0.19\nsamples = 82\nvalue = 1.246", fillcolor="#eb9c64"] ;
378 -> 379 ;
380 [label="MolWt <= -0.877\nmse = 0.141\nsamples = 46\nvalue = 1.23", fillcolor="#eb9d64"] ;
379 -> 380 ;
381 [label="MolLogP <= -0.302\nmse = 0.148\nsamples = 25\nvalue = 1.307", fillcolor="#ea9b61"] ;
380 -> 381 ;
382 [label="MolLogP <= -0.497\nmse = 0.145\nsamples = 23\nvalue = 1.262", fillcolor="#eb9c63"] ;
381 -> 382 ;
383 [label="MolWt <= -1.061\nmse = 0.148\nsamples = 13\nvalue = 1.398", fillcolor="#ea985e"] ;
382 -> 383 ;
384 [label="mse = 0.015\nsamples = 3\nvalue = 1.106", fillcolor="#eba069"] ;
383 -> 384 ;
385 [label="MolLogP <= -0.868\nmse = 0.152\nsamples = 10\nvalue = 1.534", fillcolor="#e99559"] ;
383 -> 385 ;
386 [label="mse = 0.126\nsamples = 2\nvalue = 1.118", fillcolor="#eb9f69"] ;
385 -> 386 ;
387 [label="MolLogP <= -0.551\nmse = 0.105\nsamples = 8\nvalue = 1.638", fillcolor="#e99355"] ;
385 -> 387 ;
388 [label="MolWt <= -1.011\nmse = 0.015\nsamples = 4\nvalue = 1.888", fillcolor="#e78d4b"] ;
387 -> 388 ;
389 [label="mse = 0.0\nsamples = 2\nvalue = 1.951", fillcolor="#e78b49"] ;
388 -> 389 ;
390 [label="mse = 0.021\nsamples = 2\nvalue = 1.847", fillcolor="#e88e4d"] ;
388 -> 390 ;
391 [label="MolWt <= -1.012\nmse = 0.092\nsamples = 4\nvalue = 1.46", fillcolor="#ea975c"] ;
387 -> 391 ;
392 [label="mse = 0.094\nsamples = 2\nvalue = 1.663", fillcolor="#e99254"] ;
391 -> 392 ;
393 [label="mse = 0.037\nsamples = 2\nvalue = 1.307", fillcolor="#ea9b61"] ;
391 -> 393 ;
394 [label="NumRotatableBonds <= 0.005\nmse = 0.056\nsamples = 10\nvalue = 1.033", fillcolor="#eca16c"] ;
382 -> 394 ;
395 [label="mse = 0.005\nsamples = 3\nvalue = 1.231", fillcolor="#eb9d64"] ;
394 -> 395 ;
396 [label="MolLogP <= -0.428\nmse = 0.049\nsamples = 7\nvalue = 0.909", fillcolor="#eca471"] ;
394 -> 396 ;
397 [label="mse = 0.013\nsamples = 5\nvalue = 0.925", fillcolor="#eca470"] ;
396 -> 397 ;
398 [label="mse = 0.154\nsamples = 2\nvalue = 0.862", fillcolor="#eda672"] ;
396 -> 398 ;
399 [label="mse = 0.0\nsamples = 2\nvalue = 1.698", fillcolor="#e89152"] ;
381 -> 399 ;
400 [label="MolLogP <= -0.541\nmse = 0.119\nsamples = 21\nvalue = 1.139", fillcolor="#eb9f68"] ;
380 -> 400 ;
401 [label="NumRotatableBonds <= 0.005\nmse = 0.051\nsamples = 9\nvalue = 1.368", fillcolor="#ea995f"] ;
400 -> 401 ;
402 [label="MolLogP <= -0.578\nmse = 0.011\nsamples = 5\nvalue = 1.149", fillcolor="#eb9f67"] ;
401 -> 402 ;
403 [label="mse = 0.009\nsamples = 2\nvalue = 1.043", fillcolor="#eca16b"] ;
402 -> 403 ;
404 [label="mse = 0.0\nsamples = 3\nvalue = 1.22", fillcolor="#eb9d65"] ;
402 -> 404 ;
405 [label="MolLogP <= -0.649\nmse = 0.035\nsamples = 4\nvalue = 1.477", fillcolor="#e9975b"] ;
401 -> 405 ;
406 [label="mse = 0.021\nsamples = 2\nvalue = 1.534", fillcolor="#e99559"] ;
405 -> 406 ;
407 [label="mse = 0.041\nsamples = 2\nvalue = 1.421", fillcolor="#ea985d"] ;
405 -> 407 ;
408 [label="MolWt <= -0.863\nmse = 0.095\nsamples = 12\nvalue = 0.947", fillcolor="#eca36f"] ;
400 -> 408 ;
409 [label="mse = 0.268\nsamples = 2\nvalue = 0.627", fillcolor="#eeab7b"] ;
408 -> 409 ;
410 [label="MolLogP <= -0.315\nmse = 0.035\nsamples = 10\nvalue = 1.012", fillcolor="#eca26d"] ;
408 -> 410 ;
411 [label="MolWt <= -0.71\nmse = 0.019\nsamples = 7\nvalue = 1.093", fillcolor="#eba06a"] ;
410 -> 411 ;
412 [label="MolWt <= -0.823\nmse = 0.016\nsamples = 5\nvalue = 1.065", fillcolor="#eca16b"] ;
411 -> 412 ;
413 [label="mse = 0.014\nsamples = 3\nvalue = 1.108", fillcolor="#eba069"] ;
412 -> 413 ;
414 [label="mse = 0.01\nsamples = 2\nvalue = 0.98", fillcolor="#eca36e"] ;
412 -> 414 ;
415 [label="mse = 0.01\nsamples = 2\nvalue = 1.219", fillcolor="#eb9d65"] ;
411 -> 415 ;
416 [label="mse = 0.012\nsamples = 3\nvalue = 0.787", fillcolor="#eda775"] ;
410 -> 416 ;
417 [label="MolWt <= -0.896\nmse = 0.248\nsamples = 36\nvalue = 1.266", fillcolor="#eb9c63"] ;
379 -> 417 ;
418 [label="MolWt <= -1.004\nmse = 0.194\nsamples = 18\nvalue = 1.526", fillcolor="#e99559"] ;
417 -> 418 ;
419 [label="MolLogP <= -0.413\nmse = 0.15\nsamples = 9\nvalue = 1.168", fillcolor="#eb9e67"] ;
418 -> 419 ;
420 [label="MolWt <= -1.018\nmse = 0.047\nsamples = 6\nvalue = 1.0", fillcolor="#eca26d"] ;
419 -> 420 ;
421 [label="mse = 0.004\nsamples = 2\nvalue = 1.268", fillcolor="#eb9c63"] ;
420 -> 421 ;
422 [label="MolLogP <= -0.431\nmse = 0.023\nsamples = 4\nvalue = 0.893", fillcolor="#eca571"] ;
420 -> 422 ;
423 [label="mse = 0.002\nsamples = 2\nvalue = 1.014", fillcolor="#eca26d"] ;
422 -> 423 ;
424 [label="mse = 0.0\nsamples = 2\nvalue = 0.711", fillcolor="#eda978"] ;
422 -> 424 ;
425 [label="mse = 0.196\nsamples = 3\nvalue = 1.462", fillcolor="#ea975b"] ;
419 -> 425 ;
426 [label="NumRotatableBonds <= 0.55\nmse = 0.063\nsamples = 9\nvalue = 1.788", fillcolor="#e88f4f"] ;
418 -> 426 ;
427 [label="MolLogP <= -0.45\nmse = 0.043\nsamples = 7\nvalue = 1.86", fillcolor="#e88d4c"] ;
426 -> 427 ;
428 [label="MolLogP <= -0.756\nmse = 0.012\nsamples = 5\nvalue = 1.941", fillcolor="#e78b49"] ;
427 -> 428 ;
429 [label="mse = 0.016\nsamples = 2\nvalue = 1.773", fillcolor="#e88f50"] ;
428 -> 429 ;
430 [label="mse = 0.003\nsamples = 3\nvalue = 1.983", fillcolor="#e78a48"] ;
428 -> 430 ;
431 [label="mse = 0.001\nsamples = 2\nvalue = 1.455", fillcolor="#ea975c"] ;
427 -> 431 ;
432 [label="mse = 0.038\nsamples = 2\nvalue = 1.501", fillcolor="#e9965a"] ;
426 -> 432 ;
433 [label="MolWt <= -0.774\nmse = 0.196\nsamples = 18\nvalue = 1.062", fillcolor="#eca16b"] ;
417 -> 433 ;
434 [label="MolLogP <= -0.531\nmse = 0.111\nsamples = 13\nvalue = 0.934", fillcolor="#eca470"] ;
433 -> 434 ;
435 [label="MolLogP <= -0.861\nmse = 0.103\nsamples = 7\nvalue = 0.857", fillcolor="#eda673"] ;
434 -> 435 ;
436 [label="mse = 0.0\nsamples = 2\nvalue = 0.977", fillcolor="#eca36e"] ;
435 -> 436 ;
437 [label="MolWt <= -0.805\nmse = 0.126\nsamples = 5\nvalue = 0.825", fillcolor="#eda674"] ;
435 -> 437 ;
438 [label="mse = 0.164\nsamples = 2\nvalue = 1.038", fillcolor="#eca16c"] ;
437 -> 438 ;
439 [label="mse = 0.064\nsamples = 3\nvalue = 0.702", fillcolor="#eda978"] ;
437 -> 439 ;
440 [label="MolLogP <= -0.379\nmse = 0.092\nsamples = 6\nvalue = 1.088", fillcolor="#eba06a"] ;
434 -> 440 ;
441 [label="mse = 0.142\nsamples = 2\nvalue = 1.259", fillcolor="#eb9c63"] ;
440 -> 441 ;
442 [label="MolLogP <= -0.303\nmse = 0.017\nsamples = 4\nvalue = 0.959", fillcolor="#eca36f"] ;
440 -> 442 ;
443 [label="mse = 0.03\nsamples = 2\nvalue = 1.0", fillcolor="#eca26d"] ;
442 -> 443 ;
444 [label="mse = 0.0\nsamples = 2\nvalue = 0.919", fillcolor="#eca470"] ;
442 -> 444 ;
445 [label="MolLogP <= -0.572\nmse = 0.266\nsamples = 5\nvalue = 1.286", fillcolor="#ea9b62"] ;
433 -> 445 ;
446 [label="mse = 0.023\nsamples = 2\nvalue = 1.722", fillcolor="#e89152"] ;
445 -> 446 ;
447 [label="mse = 0.207\nsamples = 3\nvalue = 0.974", fillcolor="#eca36e"] ;
445 -> 447 ;
448 [label="mse = 0.107\nsamples = 3\nvalue = 1.684", fillcolor="#e89253"] ;
378 -> 448 ;
449 [label="MolLogP <= -0.219\nmse = 0.152\nsamples = 27\nvalue = 0.647", fillcolor="#eeab7b"] ;
313 -> 449 ;
450 [label="NumRotatableBonds <= -0.422\nmse = 0.173\nsamples = 14\nvalue = 0.77", fillcolor="#eda876"] ;
449 -> 450 ;
451 [label="mse = 0.153\nsamples = 3\nvalue = 1.327", fillcolor="#ea9a61"] ;
450 -> 451 ;
452 [label="MolLogP <= -0.237\nmse = 0.088\nsamples = 11\nvalue = 0.639", fillcolor="#eeab7b"] ;
450 -> 452 ;
453 [label="MolWt <= -1.129\nmse = 0.03\nsamples = 7\nvalue = 0.484", fillcolor="#eeaf81"] ;
452 -> 453 ;
454 [label="MolLogP <= -0.238\nmse = 0.021\nsamples = 5\nvalue = 0.555", fillcolor="#eead7e"] ;
453 -> 454 ;
455 [label="mse = 0.051\nsamples = 2\nvalue = 0.52", fillcolor="#eeae7f"] ;
454 -> 455 ;
456 [label="mse = 0.003\nsamples = 3\nvalue = 0.577", fillcolor="#eeac7d"] ;
454 -> 456 ;
457 [label="mse = 0.002\nsamples = 2\nvalue = 0.294", fillcolor="#efb388"] ;
453 -> 457 ;
458 [label="MolLogP <= -0.232\nmse = 0.069\nsamples = 4\nvalue = 0.924", fillcolor="#eca470"] ;
452 -> 458 ;
459 [label="mse = 0.0\nsamples = 2\nvalue = 1.185", fillcolor="#eb9e66"] ;
458 -> 459 ;
460 [label="mse = 0.001\nsamples = 2\nvalue = 0.664", fillcolor="#eeaa7a"] ;
458 -> 460 ;
461 [label="NumRotatableBonds <= 0.005\nmse = 0.085\nsamples = 13\nvalue = 0.495", fillcolor="#eeae80"] ;
449 -> 461 ;
462 [label="mse = 0.111\nsamples = 4\nvalue = 0.623", fillcolor="#eeab7c"] ;
461 -> 462 ;
463 [label="MolWt <= -0.997\nmse = 0.057\nsamples = 9\nvalue = 0.426", fillcolor="#efb083"] ;
461 -> 463 ;
464 [label="MolWt <= -1.159\nmse = 0.027\nsamples = 7\nvalue = 0.514", fillcolor="#eeae80"] ;
463 -> 464 ;
465 [label="mse = 0.019\nsamples = 3\nvalue = 0.655", fillcolor="#eeab7a"] ;
464 -> 465 ;
466 [label="MolLogP <= -0.202\nmse = 0.004\nsamples = 4\nvalue = 0.401", fillcolor="#efb184"] ;
464 -> 466 ;
467 [label="mse = 0.005\nsamples = 2\nvalue = 0.433", fillcolor="#efb083"] ;
466 -> 467 ;
468 [label="mse = 0.003\nsamples = 2\nvalue = 0.379", fillcolor="#efb185"] ;
466 -> 468 ;
469 [label="mse = 0.0\nsamples = 2\nvalue = 0.03", fillcolor="#f1ba92"] ;
463 -> 469 ;
470 [label="MolWt <= -0.498\nmse = 0.361\nsamples = 121\nvalue = 1.115", fillcolor="#eb9f69"] ;
312 -> 470 ;
471 [label="NumRotatableBonds <= 0.005\nmse = 0.391\nsamples = 56\nvalue = 0.944", fillcolor="#eca46f"] ;
470 -> 471 ;
472 [label="MolWt <= -0.63\nmse = 0.477\nsamples = 22\nvalue = 0.675", fillcolor="#edaa7a"] ;
471 -> 472 ;
473 [label="mse = 0.007\nsamples = 2\nvalue = 1.805", fillcolor="#e88f4e"] ;
472 -> 473 ;
474 [label="NumRotatableBonds <= -0.422\nmse = 0.413\nsamples = 20\nvalue = 0.595", fillcolor="#eeac7d"] ;
472 -> 474 ;
475 [label="MolLogP <= -0.492\nmse = 0.487\nsamples = 11\nvalue = 0.628", fillcolor="#eeab7b"] ;
474 -> 475 ;
476 [label="MolWt <= -0.519\nmse = 0.214\nsamples = 8\nvalue = 0.372", fillcolor="#efb185"] ;
475 -> 476 ;
477 [label="MolWt <= -0.547\nmse = 0.106\nsamples = 6\nvalue = 0.279", fillcolor="#efb489"] ;
476 -> 477 ;
478 [label="mse = 0.113\nsamples = 2\nvalue = 0.381", fillcolor="#efb185"] ;
477 -> 478 ;
479 [label="MolLogP <= -0.661\nmse = 0.097\nsamples = 4\nvalue = 0.235", fillcolor="#f0b58a"] ;
477 -> 479 ;
480 [label="mse = 0.041\nsamples = 2\nvalue = 0.222", fillcolor="#f0b58b"] ;
479 -> 480 ;
481 [label="mse = 0.138\nsamples = 2\nvalue = 0.245", fillcolor="#f0b58a"] ;
479 -> 481 ;
482 [label="mse = 0.495\nsamples = 2\nvalue = 0.836", fillcolor="#eda673"] ;
476 -> 482 ;
483 [label="mse = 0.266\nsamples = 3\nvalue = 1.653", fillcolor="#e99254"] ;
475 -> 483 ;
484 [label="MolWt <= -0.562\nmse = 0.324\nsamples = 9\nvalue = 0.556", fillcolor="#eead7e"] ;
474 -> 484 ;
485 [label="mse = 0.021\nsamples = 3\nvalue = 1.037", fillcolor="#eca16c"] ;
484 -> 485 ;
486 [label="MolLogP <= -0.661\nmse = 0.278\nsamples = 6\nvalue = 0.255", fillcolor="#f0b48a"] ;
484 -> 486 ;
487 [label="mse = 0.144\nsamples = 2\nvalue = 0.599", fillcolor="#eeac7c"] ;
486 -> 487 ;
488 [label="MolLogP <= -0.439\nmse = 0.27\nsamples = 4\nvalue = 0.14", fillcolor="#f0b78e"] ;
486 -> 488 ;
489 [label="mse = 0.157\nsamples = 2\nvalue = -0.24", fillcolor="#f2c09c"] ;
488 -> 489 ;
490 [label="mse = 0.219\nsamples = 2\nvalue = 0.331", fillcolor="#efb287"] ;
488 -> 490 ;
491 [label="MolLogP <= -0.529\nmse = 0.26\nsamples = 34\nvalue = 1.116", fillcolor="#eb9f69"] ;
471 -> 491 ;
492 [label="MolWt <= -0.631\nmse = 0.256\nsamples = 12\nvalue = 1.412", fillcolor="#ea985d"] ;
491 -> 492 ;
493 [label="mse = 0.088\nsamples = 3\nvalue = 0.75", fillcolor="#eda877"] ;
492 -> 493 ;
494 [label="NumRotatableBonds <= 0.311\nmse = 0.161\nsamples = 9\nvalue = 1.578", fillcolor="#e99457"] ;
492 -> 494 ;
495 [label="MolLogP <= -1.394\nmse = 0.146\nsamples = 4\nvalue = 1.395", fillcolor="#ea995e"] ;
494 -> 495 ;
496 [label="mse = 0.001\nsamples = 2\nvalue = 1.397", fillcolor="#ea995e"] ;
495 -> 496 ;
497 [label="mse = 0.218\nsamples = 2\nvalue = 1.394", fillcolor="#ea995e"] ;
495 -> 497 ;
498 [label="MolLogP <= -0.904\nmse = 0.138\nsamples = 5\nvalue = 1.687", fillcolor="#e89153"] ;
494 -> 498 ;
499 [label="mse = 0.199\nsamples = 2\nvalue = 1.259", fillcolor="#eb9c63"] ;
498 -> 499 ;
500 [label="mse = 0.0\nsamples = 3\nvalue = 1.871", fillcolor="#e78d4c"] ;
498 -> 500 ;
501 [label="MolWt <= -0.575\nmse = 0.149\nsamples = 22\nvalue = 0.897", fillcolor="#eca571"] ;
491 -> 501 ;
502 [label="NumRotatableBonds <= 0.977\nmse = 0.193\nsamples = 14\nvalue = 1.016", fillcolor="#eca26d"] ;
501 -> 502 ;
503 [label="MolLogP <= -0.414\nmse = 0.111\nsamples = 12\nvalue = 0.915", fillcolor="#eca470"] ;
502 -> 503 ;
504 [label="MolLogP <= -0.451\nmse = 0.179\nsamples = 5\nvalue = 1.045", fillcolor="#eca16b"] ;
503 -> 504 ;
505 [label="mse = 0.02\nsamples = 2\nvalue = 0.727", fillcolor="#eda978"] ;
504 -> 505 ;
506 [label="mse = 0.135\nsamples = 3\nvalue = 1.363", fillcolor="#ea995f"] ;
504 -> 506 ;
507 [label="NumRotatableBonds <= 0.745\nmse = 0.038\nsamples = 7\nvalue = 0.818", fillcolor="#eda774"] ;
503 -> 507 ;
508 [label="MolWt <= -0.665\nmse = 0.039\nsamples = 4\nvalue = 0.785", fillcolor="#eda775"] ;
507 -> 508 ;
509 [label="mse = 0.001\nsamples = 2\nvalue = 0.632", fillcolor="#eeab7b"] ;
508 -> 509 ;
510 [label="mse = 0.039\nsamples = 2\nvalue = 0.888", fillcolor="#eca571"] ;
508 -> 510 ;
511 [label="mse = 0.031\nsamples = 3\nvalue = 0.873", fillcolor="#eca572"] ;
507 -> 511 ;
512 [label="mse = 0.305\nsamples = 2\nvalue = 1.487", fillcolor="#e9965b"] ;
502 -> 512 ;
513 [label="NumRotatableBonds <= 0.311\nmse = 0.011\nsamples = 8\nvalue = 0.694", fillcolor="#edaa79"] ;
501 -> 513 ;
514 [label="mse = 0.01\nsamples = 2\nvalue = 0.655", fillcolor="#eeab7a"] ;
513 -> 514 ;
515 [label="MolWt <= -0.503\nmse = 0.01\nsamples = 6\nvalue = 0.704", fillcolor="#eda978"] ;
513 -> 515 ;
516 [label="mse = 0.004\nsamples = 3\nvalue = 0.747", fillcolor="#eda877"] ;
515 -> 516 ;
517 [label="mse = 0.012\nsamples = 3\nvalue = 0.66", fillcolor="#eeaa7a"] ;
515 -> 517 ;
518 [label="MolWt <= -0.406\nmse = 0.302\nsamples = 65\nvalue = 1.241", fillcolor="#eb9c64"] ;
470 -> 518 ;
519 [label="MolWt <= -0.43\nmse = 0.264\nsamples = 35\nvalue = 1.405", fillcolor="#ea985e"] ;
518 -> 519 ;
520 [label="MolLogP <= -0.562\nmse = 0.311\nsamples = 26\nvalue = 1.306", fillcolor="#ea9b61"] ;
519 -> 520 ;
521 [label="MolLogP <= -0.969\nmse = 0.194\nsamples = 15\nvalue = 1.512", fillcolor="#e9965a"] ;
520 -> 521 ;
522 [label="MolLogP <= -1.272\nmse = 0.084\nsamples = 4\nvalue = 1.169", fillcolor="#eb9e67"] ;
521 -> 522 ;
523 [label="mse = 0.028\nsamples = 2\nvalue = 1.433", fillcolor="#ea985d"] ;
522 -> 523 ;
524 [label="mse = 0.035\nsamples = 2\nvalue = 0.971", fillcolor="#eca36e"] ;
522 -> 524 ;
525 [label="MolLogP <= -0.726\nmse = 0.171\nsamples = 11\nvalue = 1.653", fillcolor="#e99254"] ;
521 -> 525 ;
526 [label="MolLogP <= -0.836\nmse = 0.191\nsamples = 8\nvalue = 1.546", fillcolor="#e99558"] ;
525 -> 526 ;
527 [label="MolLogP <= -0.888\nmse = 0.022\nsamples = 4\nvalue = 1.735", fillcolor="#e89051"] ;
526 -> 527 ;
528 [label="mse = 0.032\nsamples = 2\nvalue = 1.67", fillcolor="#e89254"] ;
527 -> 528 ;
529 [label="mse = 0.011\nsamples = 2\nvalue = 1.779", fillcolor="#e88f4f"] ;
527 -> 529 ;
530 [label="MolWt <= -0.477\nmse = 0.268\nsamples = 4\nvalue = 1.41", fillcolor="#ea985d"] ;
526 -> 530 ;
531 [label="mse = 0.364\nsamples = 2\nvalue = 1.196", fillcolor="#eb9d66"] ;
530 -> 531 ;
532 [label="mse = 0.135\nsamples = 2\nvalue = 1.571", fillcolor="#e99457"] ;
530 -> 532 ;
533 [label="mse = 0.028\nsamples = 3\nvalue = 1.912", fillcolor="#e78c4a"] ;
525 -> 533 ;
534 [label="MolLogP <= -0.452\nmse = 0.332\nsamples = 11\nvalue = 1.015", fillcolor="#eca26d"] ;
520 -> 534 ;
535 [label="mse = 0.174\nsamples = 3\nvalue = 0.427", fillcolor="#efb083"] ;
534 -> 535 ;
536 [label="NumRotatableBonds <= 0.745\nmse = 0.242\nsamples = 8\nvalue = 1.196", fillcolor="#eb9d66"] ;
534 -> 536 ;
537 [label="MolLogP <= -0.37\nmse = 0.232\nsamples = 4\nvalue = 1.126", fillcolor="#eb9f68"] ;
536 -> 537 ;
538 [label="mse = 0.061\nsamples = 2\nvalue = 0.862", fillcolor="#eda672"] ;
537 -> 538 ;
539 [label="mse = 0.27\nsamples = 2\nvalue = 1.324", fillcolor="#ea9a61"] ;
537 -> 539 ;
540 [label="MolLogP <= -0.352\nmse = 0.24\nsamples = 4\nvalue = 1.279", fillcolor="#ea9b62"] ;
536 -> 540 ;
541 [label="mse = 0.228\nsamples = 2\nvalue = 1.174", fillcolor="#eb9e66"] ;
540 -> 541 ;
542 [label="mse = 0.231\nsamples = 2\nvalue = 1.383", fillcolor="#ea995e"] ;
540 -> 542 ;
543 [label="MolWt <= -0.41\nmse = 0.053\nsamples = 9\nvalue = 1.658", fillcolor="#e99254"] ;
519 -> 543 ;
544 [label="NumRotatableBonds <= 0.243\nmse = 0.006\nsamples = 7\nvalue = 1.742", fillcolor="#e89051"] ;
543 -> 544 ;
545 [label="MolLogP <= -1.441\nmse = 0.007\nsamples = 4\nvalue = 1.753", fillcolor="#e89050"] ;
544 -> 545 ;
546 [label="mse = 0.012\nsamples = 2\nvalue = 1.747", fillcolor="#e89051"] ;
545 -> 546 ;
547 [label="mse = -0.0\nsamples = 2\nvalue = 1.76", fillcolor="#e89050"] ;
545 -> 547 ;
548 [label="mse = 0.003\nsamples = 3\nvalue = 1.718", fillcolor="#e89152"] ;
544 -> 548 ;
549 [label="mse = 0.093\nsamples = 2\nvalue = 1.294", fillcolor="#ea9b62"] ;
543 -> 549 ;
550 [label="MolLogP <= -0.702\nmse = 0.276\nsamples = 30\nvalue = 1.043", fillcolor="#eca16b"] ;
518 -> 550 ;
551 [label="MolWt <= -0.335\nmse = 0.181\nsamples = 13\nvalue = 1.419", fillcolor="#ea985d"] ;
550 -> 551 ;
552 [label="NumRotatableBonds <= 0.418\nmse = 0.237\nsamples = 7\nvalue = 1.314", fillcolor="#ea9b61"] ;
551 -> 552 ;
553 [label="mse = 0.164\nsamples = 4\nvalue = 1.502", fillcolor="#e9965a"] ;
552 -> 553 ;
554 [label="mse = 0.193\nsamples = 3\nvalue = 0.985", fillcolor="#eca36e"] ;
552 -> 554 ;
555 [label="MolLogP <= -1.09\nmse = 0.082\nsamples = 6\nvalue = 1.548", fillcolor="#e99558"] ;
551 -> 555 ;
556 [label="mse = 0.014\nsamples = 3\nvalue = 1.73", fillcolor="#e89051"] ;
555 -> 556 ;
557 [label="mse = 0.075\nsamples = 3\nvalue = 1.321", fillcolor="#ea9a61"] ;
555 -> 557 ;
558 [label="NumRotatableBonds <= -0.422\nmse = 0.164\nsamples = 17\nvalue = 0.764", fillcolor="#eda876"] ;
550 -> 558 ;
559 [label="mse = 0.465\nsamples = 2\nvalue = 1.085", fillcolor="#eba06a"] ;
558 -> 559 ;
560 [label="MolWt <= -0.335\nmse = 0.131\nsamples = 15\nvalue = 0.738", fillcolor="#eda977"] ;
558 -> 560 ;
561 [label="MolLogP <= -0.59\nmse = 0.083\nsamples = 13\nvalue = 0.63", fillcolor="#eeab7b"] ;
560 -> 561 ;
562 [label="MolWt <= -0.369\nmse = 0.075\nsamples = 5\nvalue = 0.765", fillcolor="#eda876"] ;
561 -> 562 ;
563 [label="mse = 0.065\nsamples = 3\nvalue = 0.691", fillcolor="#edaa79"] ;
562 -> 563 ;
564 [label="mse = 0.005\nsamples = 2\nvalue = 1.061", fillcolor="#eca16b"] ;
562 -> 564 ;
565 [label="MolWt <= -0.375\nmse = 0.058\nsamples = 8\nvalue = 0.508", fillcolor="#eeae80"] ;
561 -> 565 ;
566 [label="MolLogP <= -0.537\nmse = 0.073\nsamples = 6\nvalue = 0.408", fillcolor="#efb184"] ;
565 -> 566 ;
567 [label="mse = 0.0\nsamples = 2\nvalue = 0.306", fillcolor="#efb388"] ;
566 -> 567 ;
568 [label="MolLogP <= -0.383\nmse = 0.102\nsamples = 4\nvalue = 0.459", fillcolor="#efaf82"] ;
566 -> 568 ;
569 [label="mse = 0.003\nsamples = 2\nvalue = 0.586", fillcolor="#eeac7d"] ;
568 -> 569 ;
570 [label="mse = 0.169\nsamples = 2\nvalue = 0.331", fillcolor="#efb287"] ;
568 -> 570 ;
571 [label="mse = 0.014\nsamples = 2\nvalue = 0.627", fillcolor="#eeab7b"] ;
565 -> 571 ;
572 [label="mse = 0.0\nsamples = 2\nvalue = 1.307", fillcolor="#ea9b61"] ;
560 -> 572 ;
573 [label="MolLogP <= -0.119\nmse = 0.162\nsamples = 191\nvalue = 0.457", fillcolor="#efaf82"] ;
3 -> 573 ;
574 [label="MolWt <= -1.749\nmse = 0.173\nsamples = 63\nvalue = 0.609", fillcolor="#eeac7c"] ;
573 -> 574 ;
575 [label="MolLogP <= -0.16\nmse = 0.179\nsamples = 11\nvalue = 0.153", fillcolor="#f0b78d"] ;
574 -> 575 ;
576 [label="MolWt <= -2.022\nmse = 0.25\nsamples = 4\nvalue = -0.066", fillcolor="#f1bc96"] ;
575 -> 576 ;
577 [label="mse = 0.068\nsamples = 2\nvalue = 0.161", fillcolor="#f0b78d"] ;
576 -> 577 ;
578 [label="mse = 0.294\nsamples = 2\nvalue = -0.157", fillcolor="#f2be99"] ;
576 -> 578 ;
579 [label="NumRotatableBonds <= -1.123\nmse = 0.038\nsamples = 7\nvalue = 0.344", fillcolor="#efb286"] ;
575 -> 579 ;
580 [label="MolWt <= -2.436\nmse = 0.01\nsamples = 5\nvalue = 0.278", fillcolor="#efb489"] ;
579 -> 580 ;
581 [label="mse = 0.006\nsamples = 3\nvalue = 0.243", fillcolor="#f0b58a"] ;
580 -> 581 ;
582 [label="mse = 0.012\nsamples = 2\nvalue = 0.347", fillcolor="#efb286"] ;
580 -> 582 ;
583 [label="mse = 0.068\nsamples = 2\nvalue = 0.544", fillcolor="#eead7f"] ;
579 -> 583 ;
584 [label="MolLogP <= -0.17\nmse = 0.128\nsamples = 52\nvalue = 0.692", fillcolor="#edaa79"] ;
574 -> 584 ;
585 [label="MolWt <= -1.194\nmse = 0.173\nsamples = 10\nvalue = 0.841", fillcolor="#eda673"] ;
584 -> 585 ;
586 [label="MolLogP <= -0.174\nmse = 0.066\nsamples = 6\nvalue = 0.662", fillcolor="#eeaa7a"] ;
585 -> 586 ;
587 [label="mse = 0.026\nsamples = 4\nvalue = 0.531", fillcolor="#eeae7f"] ;
586 -> 587 ;
588 [label="mse = 0.004\nsamples = 2\nvalue = 1.012", fillcolor="#eca26d"] ;
586 -> 588 ;
589 [label="NumRotatableBonds <= 0.311\nmse = 0.139\nsamples = 4\nvalue = 1.332", fillcolor="#ea9a60"] ;
585 -> 589 ;
590 [label="mse = 0.046\nsamples = 2\nvalue = 1.453", fillcolor="#ea975c"] ;
589 -> 590 ;
591 [label="mse = 0.203\nsamples = 2\nvalue = 1.211", fillcolor="#eb9d65"] ;
589 -> 591 ;
592 [label="MolWt <= -1.204\nmse = 0.112\nsamples = 42\nvalue = 0.659", fillcolor="#eeaa7a"] ;
584 -> 592 ;
593 [label="MolWt <= -1.421\nmse = 0.033\nsamples = 13\nvalue = 0.85", fillcolor="#eda673"] ;
592 -> 593 ;
594 [label="MolWt <= -1.498\nmse = 0.021\nsamples = 5\nvalue = 0.773", fillcolor="#eda876"] ;
593 -> 594 ;
595 [label="mse = 0.008\nsamples = 2\nvalue = 0.902", fillcolor="#eca571"] ;
594 -> 595 ;
596 [label="mse = 0.008\nsamples = 3\nvalue = 0.676", fillcolor="#edaa7a"] ;
594 -> 596 ;
597 [label="NumRotatableBonds <= -1.123\nmse = 0.035\nsamples = 8\nvalue = 0.892", fillcolor="#eca571"] ;
593 -> 597 ;
598 [label="mse = 0.004\nsamples = 2\nvalue = 0.796", fillcolor="#eda775"] ;
597 -> 598 ;
599 [label="NumRotatableBonds <= -0.422\nmse = 0.04\nsamples = 6\nvalue = 0.921", fillcolor="#eca470"] ;
597 -> 599 ;
600 [label="mse = 0.069\nsamples = 3\nvalue = 0.942", fillcolor="#eca46f"] ;
599 -> 600 ;
601 [label="mse = 0.02\nsamples = 3\nvalue = 0.907", fillcolor="#eca471"] ;
599 -> 601 ;
602 [label="MolLogP <= -0.166\nmse = 0.123\nsamples = 29\nvalue = 0.579", fillcolor="#eeac7d"] ;
592 -> 602 ;
603 [label="mse = 0.071\nsamples = 2\nvalue = 0.063", fillcolor="#f1b991"] ;
602 -> 603 ;
604 [label="MolWt <= -0.938\nmse = 0.087\nsamples = 27\nvalue = 0.653", fillcolor="#eeab7a"] ;
602 -> 604 ;
605 [label="NumRotatableBonds <= 0.005\nmse = 0.062\nsamples = 10\nvalue = 0.45", fillcolor="#efb082"] ;
604 -> 605 ;
606 [label="MolWt <= -1.054\nmse = 0.033\nsamples = 8\nvalue = 0.593", fillcolor="#eeac7d"] ;
605 -> 606 ;
607 [label="MolWt <= -1.068\nmse = 0.006\nsamples = 5\nvalue = 0.478", fillcolor="#eeaf81"] ;
606 -> 607 ;
608 [label="mse = 0.005\nsamples = 3\nvalue = 0.509", fillcolor="#eeae80"] ;
607 -> 608 ;
609 [label="mse = 0.005\nsamples = 2\nvalue = 0.447", fillcolor="#efb082"] ;
607 -> 609 ;
610 [label="mse = 0.008\nsamples = 3\nvalue = 0.824", fillcolor="#eda674"] ;
606 -> 610 ;
611 [label="mse = 0.01\nsamples = 2\nvalue = 0.191", fillcolor="#f0b68c"] ;
605 -> 611 ;
612 [label="MolLogP <= -0.162\nmse = 0.068\nsamples = 17\nvalue = 0.755", fillcolor="#eda876"] ;
604 -> 612 ;
613 [label="mse = 0.003\nsamples = 2\nvalue = 0.45", fillcolor="#efb082"] ;
612 -> 613 ;
614 [label="NumRotatableBonds <= -0.247\nmse = 0.064\nsamples = 15\nvalue = 0.791", fillcolor="#eda775"] ;
612 -> 614 ;
615 [label="MolWt <= -0.564\nmse = 0.108\nsamples = 7\nvalue = 0.88", fillcolor="#eca572"] ;
614 -> 615 ;
616 [label="MolLogP <= -0.129\nmse = 0.062\nsamples = 4\nvalue = 0.665", fillcolor="#eeaa7a"] ;
615 -> 616 ;
617 [label="mse = 0.033\nsamples = 2\nvalue = 0.79", fillcolor="#eda775"] ;
616 -> 617 ;
618 [label="mse = 0.026\nsamples = 2\nvalue = 0.414", fillcolor="#efb084"] ;
616 -> 618 ;
619 [label="mse = 0.004\nsamples = 3\nvalue = 1.202", fillcolor="#eb9d65"] ;
615 -> 619 ;
620 [label="MolLogP <= -0.141\nmse = 0.025\nsamples = 8\nvalue = 0.732", fillcolor="#eda977"] ;
614 -> 620 ;
621 [label="MolWt <= -0.655\nmse = 0.0\nsamples = 4\nvalue = 0.659", fillcolor="#eeaa7a"] ;
620 -> 621 ;
622 [label="mse = 0.0\nsamples = 2\nvalue = 0.681", fillcolor="#edaa79"] ;
621 -> 622 ;
623 [label="mse = 0.0\nsamples = 2\nvalue = 0.648", fillcolor="#eeab7b"] ;
621 -> 623 ;
624 [label="NumRotatableBonds <= 0.888\nmse = 0.042\nsamples = 4\nvalue = 0.843", fillcolor="#eda673"] ;
620 -> 624 ;
625 [label="mse = 0.107\nsamples = 2\nvalue = 0.801", fillcolor="#eda775"] ;
624 -> 625 ;
626 [label="mse = 0.008\nsamples = 2\nvalue = 0.864", fillcolor="#eda572"] ;
624 -> 626 ;
627 [label="MolWt <= -1.579\nmse = 0.141\nsamples = 128\nvalue = 0.386", fillcolor="#efb185"] ;
573 -> 627 ;
628 [label="MolWt <= -2.375\nmse = 0.08\nsamples = 17\nvalue = -0.016", fillcolor="#f1bb94"] ;
627 -> 628 ;
629 [label="mse = 0.064\nsamples = 3\nvalue = -0.335", fillcolor="#f3c3a0"] ;
628 -> 629 ;
630 [label="MolLogP <= -0.032\nmse = 0.063\nsamples = 14\nvalue = 0.035", fillcolor="#f1ba92"] ;
628 -> 630 ;
631 [label="NumRotatableBonds <= -1.123\nmse = 0.011\nsamples = 5\nvalue = 0.315", fillcolor="#efb387"] ;
630 -> 631 ;
632 [label="mse = 0.023\nsamples = 2\nvalue = 0.382", fillcolor="#efb185"] ;
631 -> 632 ;
633 [label="mse = 0.003\nsamples = 3\nvalue = 0.282", fillcolor="#efb489"] ;
631 -> 633 ;
634 [label="MolWt <= -2.147\nmse = 0.034\nsamples = 9\nvalue = -0.094", fillcolor="#f1bd97"] ;
630 -> 634 ;
635 [label="mse = 0.001\nsamples = 3\nvalue = -0.004", fillcolor="#f1bb93"] ;
634 -> 635 ;
636 [label="mse = 0.047\nsamples = 6\nvalue = -0.151", fillcolor="#f2be99"] ;
634 -> 636 ;
637 [label="MolWt <= -0.434\nmse = 0.127\nsamples = 111\nvalue = 0.433", fillcolor="#efb083"] ;
627 -> 637 ;
638 [label="MolLogP <= -0.027\nmse = 0.107\nsamples = 107\nvalue = 0.412", fillcolor="#efb084"] ;
637 -> 638 ;
639 [label="MolWt <= -1.446\nmse = 0.073\nsamples = 55\nvalue = 0.471", fillcolor="#eeaf81"] ;
638 -> 639 ;
640 [label="NumRotatableBonds <= -0.247\nmse = 0.025\nsamples = 9\nvalue = 0.67", fillcolor="#eeaa7a"] ;
639 -> 640 ;
641 [label="MolWt <= -1.492\nmse = 0.012\nsamples = 4\nvalue = 0.809", fillcolor="#eda774"] ;
640 -> 641 ;
642 [label="mse = 0.016\nsamples = 2\nvalue = 0.804", fillcolor="#eda775"] ;
641 -> 642 ;
643 [label="mse = 0.003\nsamples = 2\nvalue = 0.819", fillcolor="#eda774"] ;
641 -> 643 ;
644 [label="mse = 0.018\nsamples = 5\nvalue = 0.6", fillcolor="#eeac7c"] ;
640 -> 644 ;
645 [label="MolWt <= -0.894\nmse = 0.072\nsamples = 46\nvalue = 0.424", fillcolor="#efb083"] ;
639 -> 645 ;
646 [label="MolWt <= -1.025\nmse = 0.047\nsamples = 21\nvalue = 0.496", fillcolor="#eeae80"] ;
645 -> 646 ;
647 [label="NumRotatableBonds <= 0.137\nmse = 0.047\nsamples = 15\nvalue = 0.454", fillcolor="#efaf82"] ;
646 -> 647 ;
648 [label="MolWt <= -1.107\nmse = 0.051\nsamples = 12\nvalue = 0.499", fillcolor="#eeae80"] ;
647 -> 648 ;
649 [label="MolWt <= -1.294\nmse = 0.047\nsamples = 10\nvalue = 0.464", fillcolor="#efaf82"] ;
648 -> 649 ;
650 [label="mse = 0.228\nsamples = 2\nvalue = 0.286", fillcolor="#efb488"] ;
649 -> 650 ;
651 [label="MolWt <= -1.168\nmse = 0.02\nsamples = 8\nvalue = 0.486", fillcolor="#eeaf81"] ;
649 -> 651 ;
652 [label="MolLogP <= -0.066\nmse = 0.016\nsamples = 6\nvalue = 0.541", fillcolor="#eead7f"] ;
651 -> 652 ;
653 [label="mse = 0.004\nsamples = 2\nvalue = 0.721", fillcolor="#eda978"] ;
652 -> 653 ;
654 [label="MolWt <= -1.277\nmse = 0.004\nsamples = 4\nvalue = 0.473", fillcolor="#eeaf81"] ;
652 -> 654 ;
655 [label="mse = 0.0\nsamples = 2\nvalue = 0.431", fillcolor="#efb083"] ;
654 -> 655 ;
656 [label="mse = 0.003\nsamples = 2\nvalue = 0.543", fillcolor="#eead7f"] ;
654 -> 656 ;
657 [label="mse = 0.008\nsamples = 2\nvalue = 0.367", fillcolor="#efb285"] ;
651 -> 657 ;
658 [label="mse = 0.022\nsamples = 2\nvalue = 0.706", fillcolor="#eda978"] ;
648 -> 658 ;
659 [label="mse = 0.0\nsamples = 3\nvalue = 0.297", fillcolor="#efb388"] ;
647 -> 659 ;
660 [label="MolWt <= -1.017\nmse = 0.026\nsamples = 6\nvalue = 0.623", fillcolor="#eeab7c"] ;
646 -> 660 ;
661 [label="mse = -0.0\nsamples = 2\nvalue = 0.732", fillcolor="#eda977"] ;
660 -> 661 ;
662 [label="MolWt <= -0.932\nmse = 0.03\nsamples = 4\nvalue = 0.569", fillcolor="#eead7e"] ;
660 -> 662 ;
663 [label="mse = 0.032\nsamples = 2\nvalue = 0.587", fillcolor="#eeac7d"] ;
662 -> 663 ;
664 [label="mse = 0.025\nsamples = 2\nvalue = 0.532", fillcolor="#eeae7f"] ;
662 -> 664 ;
665 [label="NumRotatableBonds <= -1.123\nmse = 0.087\nsamples = 25\nvalue = 0.358", fillcolor="#efb286"] ;
645 -> 665 ;
666 [label="MolLogP <= -0.072\nmse = 0.08\nsamples = 6\nvalue = 0.471", fillcolor="#eeaf81"] ;
665 -> 666 ;
667 [label="mse = 0.018\nsamples = 3\nvalue = 0.694", fillcolor="#edaa79"] ;
666 -> 667 ;
668 [label="mse = 0.017\nsamples = 3\nvalue = 0.193", fillcolor="#f0b68c"] ;
666 -> 668 ;
669 [label="MolWt <= -0.519\nmse = 0.084\nsamples = 19\nvalue = 0.326", fillcolor="#efb387"] ;
665 -> 669 ;
670 [label="NumRotatableBonds <= 0.005\nmse = 0.069\nsamples = 14\nvalue = 0.246", fillcolor="#f0b58a"] ;
669 -> 670 ;
671 [label="MolWt <= -0.597\nmse = 0.013\nsamples = 7\nvalue = 0.327", fillcolor="#efb387"] ;
670 -> 671 ;
672 [label="MolWt <= -0.678\nmse = 0.006\nsamples = 4\nvalue = 0.389", fillcolor="#efb184"] ;
671 -> 672 ;
673 [label="mse = 0.004\nsamples = 2\nvalue = 0.325", fillcolor="#efb387"] ;
672 -> 673 ;
674 [label="mse = 0.001\nsamples = 2\nvalue = 0.453", fillcolor="#efaf82"] ;
672 -> 674 ;
675 [label="mse = 0.01\nsamples = 3\nvalue = 0.234", fillcolor="#f0b58a"] ;
671 -> 675 ;
676 [label="MolLogP <= -0.06\nmse = 0.102\nsamples = 7\nvalue = 0.183", fillcolor="#f0b68c"] ;
670 -> 676 ;
677 [label="MolLogP <= -0.076\nmse = 0.077\nsamples = 5\nvalue = 0.112", fillcolor="#f0b88f"] ;
676 -> 677 ;
678 [label="mse = 0.068\nsamples = 3\nvalue = 0.216", fillcolor="#f0b58b"] ;
677 -> 678 ;
679 [label="mse = 0.014\nsamples = 2\nvalue = -0.133", fillcolor="#f2be98"] ;
677 -> 679 ;
680 [label="mse = 0.112\nsamples = 2\nvalue = 0.423", fillcolor="#efb083"] ;
676 -> 680 ;
681 [label="MolLogP <= -0.057\nmse = 0.056\nsamples = 5\nvalue = 0.555", fillcolor="#eead7e"] ;
669 -> 681 ;
682 [label="mse = 0.041\nsamples = 3\nvalue = 0.687", fillcolor="#edaa79"] ;
681 -> 682 ;
683 [label="mse = 0.004\nsamples = 2\nvalue = 0.336", fillcolor="#efb287"] ;
681 -> 683 ;
684 [label="MolWt <= -0.613\nmse = 0.138\nsamples = 52\nvalue = 0.345", fillcolor="#efb286"] ;
638 -> 684 ;
685 [label="MolLogP <= 0.049\nmse = 0.135\nsamples = 47\nvalue = 0.317", fillcolor="#efb387"] ;
684 -> 685 ;
686 [label="MolLogP <= 0.027\nmse = 0.069\nsamples = 42\nvalue = 0.281", fillcolor="#efb489"] ;
685 -> 686 ;
687 [label="MolWt <= -1.415\nmse = 0.065\nsamples = 25\nvalue = 0.349", fillcolor="#efb286"] ;
686 -> 687 ;
688 [label="mse = 0.006\nsamples = 2\nvalue = 0.071", fillcolor="#f1b991"] ;
687 -> 688 ;
689 [label="MolWt <= -0.681\nmse = 0.061\nsamples = 23\nvalue = 0.384", fillcolor="#efb185"] ;
687 -> 689 ;
690 [label="MolWt <= -0.786\nmse = 0.059\nsamples = 21\nvalue = 0.41", fillcolor="#efb184"] ;
689 -> 690 ;
691 [label="MolWt <= -0.981\nmse = 0.038\nsamples = 19\nvalue = 0.378", fillcolor="#efb185"] ;
690 -> 691 ;
692 [label="NumRotatableBonds <= 0.005\nmse = 0.032\nsamples = 15\nvalue = 0.421", fillcolor="#efb083"] ;
691 -> 692 ;
693 [label="MolLogP <= -0.009\nmse = 0.039\nsamples = 6\nvalue = 0.245", fillcolor="#f0b58a"] ;
692 -> 693 ;
694 [label="mse = 0.003\nsamples = 3\nvalue = 0.451", fillcolor="#efb082"] ;
693 -> 694 ;
695 [label="mse = 0.011\nsamples = 3\nvalue = 0.091", fillcolor="#f0b890"] ;
693 -> 695 ;
696 [label="NumRotatableBonds <= 0.55\nmse = 0.014\nsamples = 9\nvalue = 0.486", fillcolor="#eeaf81"] ;
692 -> 696 ;
697 [label="NumRotatableBonds <= 0.311\nmse = 0.004\nsamples = 5\nvalue = 0.586", fillcolor="#eeac7d"] ;
696 -> 697 ;
698 [label="mse = 0.003\nsamples = 3\nvalue = 0.617", fillcolor="#eeab7c"] ;
697 -> 698 ;
699 [label="mse = 0.0\nsamples = 2\nvalue = 0.515", fillcolor="#eeae80"] ;
697 -> 699 ;
700 [label="mse = 0.001\nsamples = 4\nvalue = 0.375", fillcolor="#efb185"] ;
696 -> 700 ;
701 [label="MolLogP <= 0.002\nmse = 0.018\nsamples = 4\nvalue = 0.188", fillcolor="#f0b68c"] ;
691 -> 701 ;
702 [label="mse = 0.0\nsamples = 2\nvalue = 0.061", fillcolor="#f1b991"] ;
701 -> 702 ;
703 [label="mse = 0.003\nsamples = 2\nvalue = 0.315", fillcolor="#efb387"] ;
701 -> 703 ;
704 [label="mse = 0.148\nsamples = 2\nvalue = 0.758", fillcolor="#eda876"] ;
690 -> 704 ;
705 [label="mse = 0.028\nsamples = 2\nvalue = 0.158", fillcolor="#f0b78d"] ;
689 -> 705 ;
706 [label="MolLogP <= 0.028\nmse = 0.056\nsamples = 17\nvalue = 0.167", fillcolor="#f0b68d"] ;
686 -> 706 ;
707 [label="mse = 0.008\nsamples = 2\nvalue = -0.14", fillcolor="#f2be99"] ;
706 -> 707 ;
708 [label="MolWt <= -0.977\nmse = 0.045\nsamples = 15\nvalue = 0.223", fillcolor="#f0b58b"] ;
706 -> 708 ;
709 [label="NumRotatableBonds <= 0.55\nmse = 0.06\nsamples = 9\nvalue = 0.279", fillcolor="#efb489"] ;
708 -> 709 ;
710 [label="mse = 0.064\nsamples = 7\nvalue = 0.33", fillcolor="#efb287"] ;
709 -> 710 ;
711 [label="mse = 0.002\nsamples = 2\nvalue = 0.092", fillcolor="#f0b890"] ;
709 -> 711 ;
712 [label="MolLogP <= 0.044\nmse = 0.003\nsamples = 6\nvalue = 0.126", fillcolor="#f0b78f"] ;
708 -> 712 ;
713 [label="mse = 0.0\nsamples = 2\nvalue = 0.1", fillcolor="#f0b890"] ;
712 -> 713 ;
714 [label="mse = 0.004\nsamples = 4\nvalue = 0.141", fillcolor="#f0b78e"] ;
712 -> 714 ;
715 [label="MolLogP <= 0.051\nmse = 0.645\nsamples = 5\nvalue = 0.679", fillcolor="#edaa79"] ;
685 -> 715 ;
716 [label="mse = 0.884\nsamples = 3\nvalue = 0.989", fillcolor="#eca26e"] ;
715 -> 716 ;
717 [label="mse = 0.027\nsamples = 2\nvalue = 0.266", fillcolor="#f0b489"] ;
715 -> 717 ;
718 [label="NumRotatableBonds <= 0.977\nmse = 0.07\nsamples = 5\nvalue = 0.651", fillcolor="#eeab7a"] ;
684 -> 718 ;
719 [label="mse = 0.014\nsamples = 3\nvalue = 0.75", fillcolor="#eda877"] ;
718 -> 719 ;
720 [label="mse = 0.124\nsamples = 2\nvalue = 0.402", fillcolor="#efb184"] ;
718 -> 720 ;
721 [label="MolLogP <= 0.034\nmse = 0.331\nsamples = 4\nvalue = 0.911", fillcolor="#eca471"] ;
637 -> 721 ;
722 [label="mse = 0.012\nsamples = 2\nvalue = 0.196", fillcolor="#f0b68c"] ;
721 -> 722 ;
723 [label="mse = 0.21\nsamples = 2\nvalue = 1.15", fillcolor="#eb9f67"] ;
721 -> 723 ;
724 [label="MolLogP <= -0.875\nmse = 0.847\nsamples = 408\nvalue = 0.478", fillcolor="#eeaf81"] ;
2 -> 724 ;
725 [label="NumRotatableBonds <= -1.123\nmse = 1.069\nsamples = 145\nvalue = 0.74", fillcolor="#eda877"] ;
724 -> 725 ;
726 [label="MolWt <= -0.193\nmse = 1.237\nsamples = 48\nvalue = -0.097", fillcolor="#f1bd97"] ;
725 -> 726 ;
727 [label="MolWt <= -0.252\nmse = 0.213\nsamples = 6\nvalue = -1.043", fillcolor="#f6d4bb"] ;
726 -> 727 ;
728 [label="mse = 0.059\nsamples = 2\nvalue = -0.754", fillcolor="#f5cdb0"] ;
727 -> 728 ;
729 [label="MolWt <= -0.218\nmse = 0.225\nsamples = 4\nvalue = -1.216", fillcolor="#f7d8c2"] ;
727 -> 729 ;
730 [label="mse = 0.004\nsamples = 2\nvalue = -1.309", fillcolor="#f7dac5"] ;
729 -> 730 ;
731 [label="mse = 0.523\nsamples = 2\nvalue = -1.076", fillcolor="#f6d5bc"] ;
729 -> 731 ;
732 [label="MolLogP <= -4.062\nmse = 1.239\nsamples = 42\nvalue = 0.027", fillcolor="#f1ba92"] ;
726 -> 732 ;
733 [label="MolLogP <= -4.901\nmse = 0.031\nsamples = 6\nvalue = 1.109", fillcolor="#eba069"] ;
732 -> 733 ;
734 [label="MolWt <= 1.309\nmse = 0.011\nsamples = 4\nvalue = 1.054", fillcolor="#eca16b"] ;
733 -> 734 ;
735 [label="mse = 0.017\nsamples = 2\nvalue = 1.07", fillcolor="#eba06a"] ;
734 -> 735 ;
736 [label="mse = 0.0\nsamples = 2\nvalue = 1.026", fillcolor="#eca26c"] ;
734 -> 736 ;
737 [label="mse = 0.049\nsamples = 2\nvalue = 1.333", fillcolor="#ea9a60"] ;
733 -> 737 ;
738 [label="MolWt <= 0.647\nmse = 1.201\nsamples = 36\nvalue = -0.185", fillcolor="#f2bf9a"] ;
732 -> 738 ;
739 [label="MolLogP <= -1.483\nmse = 1.223\nsamples = 21\nvalue = 0.254", fillcolor="#f0b48a"] ;
738 -> 739 ;
740 [label="MolLogP <= -2.077\nmse = 0.336\nsamples = 10\nvalue = 1.008", fillcolor="#eca26d"] ;
739 -> 740 ;
741 [label="MolLogP <= -2.456\nmse = 0.421\nsamples = 5\nvalue = 0.815", fillcolor="#eda774"] ;
740 -> 741 ;
742 [label="mse = 0.168\nsamples = 3\nvalue = 1.306", fillcolor="#ea9b61"] ;
741 -> 742 ;
743 [label="mse = 0.008\nsamples = 2\nvalue = 0.159", fillcolor="#f0b78d"] ;
741 -> 743 ;
744 [label="MolLogP <= -1.565\nmse = 0.091\nsamples = 5\nvalue = 1.278", fillcolor="#ea9b62"] ;
740 -> 744 ;
745 [label="mse = 0.13\nsamples = 3\nvalue = 1.355", fillcolor="#ea9a60"] ;
744 -> 745 ;
746 [label="mse = 0.011\nsamples = 2\nvalue = 1.163", fillcolor="#eb9e67"] ;
744 -> 746 ;
747 [label="MolWt <= 0.419\nmse = 1.142\nsamples = 11\nvalue = -0.312", fillcolor="#f2c29f"] ;
739 -> 747 ;
748 [label="MolLogP <= -1.4\nmse = 0.925\nsamples = 8\nvalue = -0.496", fillcolor="#f3c7a6"] ;
747 -> 748 ;
749 [label="mse = 0.026\nsamples = 2\nvalue = -1.258", fillcolor="#f7d9c3"] ;
748 -> 749 ;
750 [label="MolWt <= -0.057\nmse = 0.854\nsamples = 6\nvalue = 0.049", fillcolor="#f1b991"] ;
748 -> 750 ;
751 [label="MolLogP <= -1.217\nmse = 1.183\nsamples = 4\nvalue = 0.283", fillcolor="#efb489"] ;
750 -> 751 ;
752 [label="mse = 0.501\nsamples = 2\nvalue = 0.692", fillcolor="#edaa79"] ;
751 -> 752 ;
753 [label="mse = 1.532\nsamples = 2\nvalue = -0.126", fillcolor="#f1be98"] ;
751 -> 753 ;
754 [label="mse = 0.246\nsamples = 2\nvalue = -0.262", fillcolor="#f2c19d"] ;
750 -> 754 ;
755 [label="mse = 1.388\nsamples = 3\nvalue = 0.239", fillcolor="#f0b58a"] ;
747 -> 755 ;
756 [label="MolLogP <= -3.421\nmse = 0.656\nsamples = 15\nvalue = -0.719", fillcolor="#f4ccaf"] ;
738 -> 756 ;
757 [label="mse = 0.001\nsamples = 2\nvalue = -1.71", fillcolor="#f9e4d5"] ;
756 -> 757 ;
758 [label="MolWt <= 0.895\nmse = 0.616\nsamples = 13\nvalue = -0.624", fillcolor="#f4caab"] ;
756 -> 758 ;
759 [label="mse = 0.001\nsamples = 2\nvalue = -1.499", fillcolor="#f8dfcd"] ;
758 -> 759 ;
760 [label="MolWt <= 1.171\nmse = 0.592\nsamples = 11\nvalue = -0.532", fillcolor="#f4c7a8"] ;
758 -> 760 ;
761 [label="mse = 0.839\nsamples = 3\nvalue = 0.142", fillcolor="#f0b78e"] ;
760 -> 761 ;
762 [label="MolWt <= 1.887\nmse = 0.283\nsamples = 8\nvalue = -0.773", fillcolor="#f5cdb1"] ;
760 -> 762 ;
763 [label="MolLogP <= -2.719\nmse = 0.182\nsamples = 6\nvalue = -0.69", fillcolor="#f4cbae"] ;
762 -> 763 ;
764 [label="mse = 0.031\nsamples = 3\nvalue = -0.766", fillcolor="#f5cdb1"] ;
763 -> 764 ;
765 [label="mse = 0.417\nsamples = 3\nvalue = -0.559", fillcolor="#f4c8a9"] ;
763 -> 765 ;
766 [label="mse = 0.539\nsamples = 2\nvalue = -1.075", fillcolor="#f6d5bc"] ;
762 -> 766 ;
767 [label="MolLogP <= -0.899\nmse = 0.544\nsamples = 97\nvalue = 1.112", fillcolor="#eb9f69"] ;
725 -> 767 ;
768 [label="MolWt <= 0.301\nmse = 0.564\nsamples = 91\nvalue = 1.053", fillcolor="#eca16b"] ;
767 -> 768 ;
769 [label="MolWt <= 0.228\nmse = 0.376\nsamples = 43\nvalue = 1.266", fillcolor="#eb9c63"] ;
768 -> 769 ;
770 [label="NumRotatableBonds <= 0.005\nmse = 0.407\nsamples = 37\nvalue = 1.162", fillcolor="#eb9e67"] ;
769 -> 770 ;
771 [label="MolLogP <= -1.628\nmse = 0.932\nsamples = 7\nvalue = 0.734", fillcolor="#eda977"] ;
770 -> 771 ;
772 [label="mse = 1.889\nsamples = 2\nvalue = -0.282", fillcolor="#f2c19e"] ;
771 -> 772 ;
773 [label="MolWt <= -0.161\nmse = 0.04\nsamples = 5\nvalue = 1.115", fillcolor="#eb9f69"] ;
771 -> 773 ;
774 [label="mse = 0.0\nsamples = 2\nvalue = 1.029", fillcolor="#eca16c"] ;
773 -> 774 ;
775 [label="mse = 0.074\nsamples = 3\nvalue = 1.259", fillcolor="#eb9c63"] ;
773 -> 775 ;
776 [label="MolWt <= -0.26\nmse = 0.219\nsamples = 30\nvalue = 1.269", fillcolor="#ea9c63"] ;
770 -> 776 ;
777 [label="mse = 0.364\nsamples = 3\nvalue = 0.833", fillcolor="#eda673"] ;
776 -> 777 ;
778 [label="MolLogP <= -1.827\nmse = 0.193\nsamples = 27\nvalue = 1.301", fillcolor="#ea9b62"] ;
776 -> 778 ;
779 [label="MolLogP <= -2.498\nmse = 0.022\nsamples = 6\nvalue = 1.546", fillcolor="#e99558"] ;
778 -> 779 ;
780 [label="MolLogP <= -3.089\nmse = 0.011\nsamples = 4\nvalue = 1.616", fillcolor="#e99356"] ;
779 -> 780 ;
781 [label="mse = 0.001\nsamples = 2\nvalue = 1.555", fillcolor="#e99558"] ;
780 -> 781 ;
782 [label="mse = 0.011\nsamples = 2\nvalue = 1.707", fillcolor="#e89152"] ;
780 -> 782 ;
783 [label="mse = 0.023\nsamples = 2\nvalue = 1.475", fillcolor="#e9975b"] ;
779 -> 783 ;
784 [label="MolLogP <= -0.956\nmse = 0.223\nsamples = 21\nvalue = 1.222", fillcolor="#eb9d65"] ;
778 -> 784 ;
785 [label="MolWt <= 0.061\nmse = 0.242\nsamples = 18\nvalue = 1.129", fillcolor="#eb9f68"] ;
784 -> 785 ;
786 [label="NumRotatableBonds <= 1.137\nmse = 0.219\nsamples = 12\nvalue = 1.269", fillcolor="#ea9c63"] ;
785 -> 786 ;
787 [label="MolLogP <= -1.425\nmse = 0.233\nsamples = 10\nvalue = 1.191", fillcolor="#eb9e66"] ;
786 -> 787 ;
788 [label="MolWt <= -0.134\nmse = 0.067\nsamples = 5\nvalue = 1.371", fillcolor="#ea995f"] ;
787 -> 788 ;
789 [label="mse = 0.008\nsamples = 3\nvalue = 1.4", fillcolor="#ea985e"] ;
788 -> 789 ;
790 [label="mse = 0.124\nsamples = 2\nvalue = 1.343", fillcolor="#ea9a60"] ;
788 -> 790 ;
791 [label="NumRotatableBonds <= 0.745\nmse = 0.363\nsamples = 5\nvalue = 0.901", fillcolor="#eca571"] ;
787 -> 791 ;
792 [label="mse = 0.033\nsamples = 2\nvalue = 1.071", fillcolor="#eba06a"] ;
791 -> 792 ;
793 [label="mse = 0.552\nsamples = 3\nvalue = 0.788", fillcolor="#eda775"] ;
791 -> 793 ;
794 [label="mse = 0.012\nsamples = 2\nvalue = 1.61", fillcolor="#e99356"] ;
786 -> 794 ;
795 [label="NumRotatableBonds <= 0.745\nmse = 0.171\nsamples = 6\nvalue = 0.847", fillcolor="#eda673"] ;
785 -> 795 ;
796 [label="mse = 0.066\nsamples = 2\nvalue = 0.574", fillcolor="#eead7d"] ;
795 -> 796 ;
797 [label="MolLogP <= -1.514\nmse = 0.162\nsamples = 4\nvalue = 1.012", fillcolor="#eca26d"] ;
795 -> 797 ;
798 [label="mse = 0.001\nsamples = 2\nvalue = 1.013", fillcolor="#eca26d"] ;
797 -> 798 ;
799 [label="mse = 0.27\nsamples = 2\nvalue = 1.011", fillcolor="#eca26d"] ;
797 -> 799 ;
800 [label="mse = 0.024\nsamples = 3\nvalue = 1.543", fillcolor="#e99558"] ;
784 -> 800 ;
801 [label="NumRotatableBonds <= 0.55\nmse = 0.077\nsamples = 6\nvalue = 1.649", fillcolor="#e99254"] ;
769 -> 801 ;
802 [label="mse = 0.015\nsamples = 2\nvalue = 1.301", fillcolor="#ea9b62"] ;
801 -> 802 ;
803 [label="NumRotatableBonds <= 0.745\nmse = 0.04\nsamples = 4\nvalue = 1.776", fillcolor="#e88f4f"] ;
801 -> 803 ;
804 [label="mse = 0.006\nsamples = 2\nvalue = 1.646", fillcolor="#e99254"] ;
803 -> 804 ;
805 [label="mse = 0.045\nsamples = 2\nvalue = 1.85", fillcolor="#e88e4d"] ;
803 -> 805 ;
806 [label="MolLogP <= -1.117\nmse = 0.661\nsamples = 48\nvalue = 0.84", fillcolor="#eda673"] ;
768 -> 806 ;
807 [label="MolWt <= 0.389\nmse = 0.616\nsamples = 40\nvalue = 0.929", fillcolor="#eca470"] ;
806 -> 807 ;
808 [label="NumRotatableBonds <= 0.55\nmse = 1.347\nsamples = 5\nvalue = 0.004", fillcolor="#f1ba93"] ;
807 -> 808 ;
809 [label="mse = 0.673\nsamples = 2\nvalue = -0.563", fillcolor="#f4c8a9"] ;
808 -> 809 ;
810 [label="mse = 1.377\nsamples = 3\nvalue = 0.572", fillcolor="#eead7d"] ;
808 -> 810 ;
811 [label="MolWt <= 2.044\nmse = 0.429\nsamples = 35\nvalue = 1.032", fillcolor="#eca16c"] ;
807 -> 811 ;
812 [label="MolWt <= 0.844\nmse = 0.226\nsamples = 31\nvalue = 1.14", fillcolor="#eb9f68"] ;
811 -> 812 ;
813 [label="NumRotatableBonds <= 0.137\nmse = 0.129\nsamples = 14\nvalue = 1.334", fillcolor="#ea9a60"] ;
812 -> 813 ;
814 [label="mse = 0.181\nsamples = 3\nvalue = 0.803", fillcolor="#eda775"] ;
813 -> 814 ;
815 [label="MolLogP <= -2.008\nmse = 0.069\nsamples = 11\nvalue = 1.418", fillcolor="#ea985d"] ;
813 -> 815 ;
816 [label="NumRotatableBonds <= 1.178\nmse = 0.066\nsamples = 7\nvalue = 1.334", fillcolor="#ea9a60"] ;
815 -> 816 ;
817 [label="NumRotatableBonds <= 0.55\nmse = 0.047\nsamples = 5\nvalue = 1.432", fillcolor="#ea985d"] ;
816 -> 817 ;
818 [label="mse = 0.098\nsamples = 2\nvalue = 1.369", fillcolor="#ea995f"] ;
817 -> 818 ;
819 [label="mse = 0.001\nsamples = 3\nvalue = 1.482", fillcolor="#e9965b"] ;
817 -> 819 ;
820 [label="mse = 0.04\nsamples = 2\nvalue = 1.112", fillcolor="#eb9f69"] ;
816 -> 820 ;
821 [label="MolWt <= 0.678\nmse = 0.027\nsamples = 4\nvalue = 1.6", fillcolor="#e99456"] ;
815 -> 821 ;
822 [label="mse = 0.005\nsamples = 2\nvalue = 1.627", fillcolor="#e99355"] ;
821 -> 822 ;
823 [label="mse = 0.046\nsamples = 2\nvalue = 1.573", fillcolor="#e99457"] ;
821 -> 823 ;
824 [label="NumRotatableBonds <= 0.745\nmse = 0.25\nsamples = 17\nvalue = 0.982", fillcolor="#eca36e"] ;
812 -> 824 ;
825 [label="mse = 0.38\nsamples = 2\nvalue = -0.141", fillcolor="#f2be99"] ;
824 -> 825 ;
826 [label="NumRotatableBonds <= 1.391\nmse = 0.131\nsamples = 15\nvalue = 1.072", fillcolor="#eba06a"] ;
824 -> 826 ;
827 [label="MolWt <= 1.126\nmse = 0.148\nsamples = 7\nvalue = 0.871", fillcolor="#eca572"] ;
826 -> 827 ;
828 [label="mse = 0.114\nsamples = 3\nvalue = 1.11", fillcolor="#eb9f69"] ;
827 -> 828 ;
829 [label="MolWt <= 1.568\nmse = 0.116\nsamples = 4\nvalue = 0.734", fillcolor="#eda977"] ;
827 -> 829 ;
830 [label="mse = 0.079\nsamples = 2\nvalue = 0.663", fillcolor="#eeaa7a"] ;
829 -> 830 ;
831 [label="mse = 0.137\nsamples = 2\nvalue = 0.787", fillcolor="#eda775"] ;
829 -> 831 ;
832 [label="MolWt <= 0.951\nmse = 0.061\nsamples = 8\nvalue = 1.23", fillcolor="#eb9d64"] ;
826 -> 832 ;
833 [label="mse = 0.044\nsamples = 2\nvalue = 1.008", fillcolor="#eca26d"] ;
832 -> 833 ;
834 [label="NumRotatableBonds <= 1.929\nmse = 0.039\nsamples = 6\nvalue = 1.318", fillcolor="#ea9a61"] ;
832 -> 834 ;
835 [label="NumRotatableBonds <= 1.483\nmse = 0.003\nsamples = 4\nvalue = 1.393", fillcolor="#ea995e"] ;
834 -> 835 ;
836 [label="mse = 0.004\nsamples = 2\nvalue = 1.355", fillcolor="#ea9a60"] ;
835 -> 836 ;
837 [label="mse = 0.0\nsamples = 2\nvalue = 1.431", fillcolor="#ea985d"] ;
835 -> 837 ;
838 [label="mse = 0.073\nsamples = 2\nvalue = 1.021", fillcolor="#eca26c"] ;
834 -> 838 ;
839 [label="NumRotatableBonds <= 0.977\nmse = 1.186\nsamples = 4\nvalue = -0.024", fillcolor="#f1bb94"] ;
811 -> 839 ;
840 [label="mse = 1.012\nsamples = 2\nvalue = -0.644", fillcolor="#f4caac"] ;
839 -> 840 ;
841 [label="mse = 0.002\nsamples = 2\nvalue = 0.907", fillcolor="#eca471"] ;
839 -> 841 ;
842 [label="NumRotatableBonds <= 1.605\nmse = 0.591\nsamples = 8\nvalue = 0.301", fillcolor="#efb388"] ;
806 -> 842 ;
843 [label="MolWt <= 0.558\nmse = 0.303\nsamples = 6\nvalue = 0.454", fillcolor="#efaf82"] ;
842 -> 843 ;
844 [label="mse = 0.348\nsamples = 2\nvalue = 1.091", fillcolor="#eba06a"] ;
843 -> 844 ;
845 [label="NumRotatableBonds <= 0.506\nmse = 0.058\nsamples = 4\nvalue = 0.199", fillcolor="#f0b68c"] ;
843 -> 845 ;
846 [label="mse = 0.058\nsamples = 2\nvalue = 0.185", fillcolor="#f0b68c"] ;
845 -> 846 ;
847 [label="mse = 0.057\nsamples = 2\nvalue = 0.219", fillcolor="#f0b58b"] ;
845 -> 847 ;
848 [label="mse = 1.08\nsamples = 2\nvalue = -0.055", fillcolor="#f1bc95"] ;
842 -> 848 ;
849 [label="NumRotatableBonds <= 0.639\nmse = 0.023\nsamples = 6\nvalue = 1.663", fillcolor="#e99254"] ;
767 -> 849 ;
850 [label="mse = 0.011\nsamples = 3\nvalue = 1.755", fillcolor="#e89050"] ;
849 -> 850 ;
851 [label="mse = 0.009\nsamples = 3\nvalue = 1.526", fillcolor="#e99559"] ;
849 -> 851 ;
852 [label="MolLogP <= -0.832\nmse = 0.667\nsamples = 263\nvalue = 0.334", fillcolor="#efb287"] ;
724 -> 852 ;
853 [label="MolLogP <= -0.851\nmse = 0.601\nsamples = 6\nvalue = -0.343", fillcolor="#f3c3a0"] ;
852 -> 853 ;
854 [label="mse = 0.007\nsamples = 3\nvalue = 0.026", fillcolor="#f1ba92"] ;
853 -> 854 ;
855 [label="mse = 0.987\nsamples = 3\nvalue = -0.958", fillcolor="#f6d2b8"] ;
853 -> 855 ;
856 [label="MolWt <= 0.822\nmse = 0.659\nsamples = 257\nvalue = 0.348", fillcolor="#efb286"] ;
852 -> 856 ;
857 [label="NumRotatableBonds <= -1.123\nmse = 0.637\nsamples = 222\nvalue = 0.407", fillcolor="#efb184"] ;
856 -> 857 ;
858 [label="MolWt <= 0.037\nmse = 1.933\nsamples = 21\nvalue = -0.085", fillcolor="#f1bd97"] ;
857 -> 858 ;
859 [label="MolWt <= -0.261\nmse = 0.697\nsamples = 10\nvalue = -1.067", fillcolor="#f6d4bc"] ;
858 -> 859 ;
860 [label="mse = 0.357\nsamples = 2\nvalue = -1.616", fillcolor="#f9e2d1"] ;
859 -> 860 ;
861 [label="MolWt <= -0.077\nmse = 0.575\nsamples = 8\nvalue = -0.683", fillcolor="#f4cbad"] ;
859 -> 861 ;
862 [label="MolWt <= -0.141\nmse = 0.434\nsamples = 5\nvalue = -0.899", fillcolor="#f5d0b6"] ;
861 -> 862 ;
863 [label="mse = 0.006\nsamples = 2\nvalue = -0.079", fillcolor="#f1bc96"] ;
862 -> 863 ;
864 [label="mse = 0.228\nsamples = 3\nvalue = -1.228", fillcolor="#f7d8c2"] ;
862 -> 864 ;
865 [label="mse = 0.541\nsamples = 3\nvalue = -0.178", fillcolor="#f2bf9a"] ;
861 -> 865 ;
866 [label="MolLogP <= -0.35\nmse = 1.238\nsamples = 11\nvalue = 0.898", fillcolor="#eca571"] ;
858 -> 866 ;
867 [label="MolWt <= 0.57\nmse = 0.704\nsamples = 7\nvalue = 1.316", fillcolor="#ea9a61"] ;
866 -> 867 ;
868 [label="MolWt <= 0.348\nmse = 0.064\nsamples = 5\nvalue = 1.54", fillcolor="#e99559"] ;
867 -> 868 ;
869 [label="mse = 0.081\nsamples = 3\nvalue = 1.454", fillcolor="#ea975c"] ;
868 -> 869 ;
870 [label="mse = 0.001\nsamples = 2\nvalue = 1.69", fillcolor="#e89153"] ;
868 -> 870 ;
871 [label="mse = 2.428\nsamples = 2\nvalue = 0.085", fillcolor="#f0b890"] ;
867 -> 871 ;
872 [label="MolLogP <= -0.187\nmse = 0.565\nsamples = 4\nvalue = -0.46", fillcolor="#f3c6a5"] ;
866 -> 872 ;
873 [label="mse = 0.262\nsamples = 2\nvalue = -1.116", fillcolor="#f6d6be"] ;
872 -> 873 ;
874 [label="mse = 0.007\nsamples = 2\nvalue = 0.196", fillcolor="#f0b68c"] ;
872 -> 874 ;
875 [label="MolWt <= 0.785\nmse = 0.469\nsamples = 201\nvalue = 0.46", fillcolor="#efaf82"] ;
857 -> 875 ;
876 [label="MolLogP <= -0.483\nmse = 0.458\nsamples = 198\nvalue = 0.443", fillcolor="#efb082"] ;
875 -> 876 ;
877 [label="NumRotatableBonds <= 1.391\nmse = 0.511\nsamples = 52\nvalue = 0.664", fillcolor="#eeaa7a"] ;
876 -> 877 ;
878 [label="MolLogP <= -0.61\nmse = 0.476\nsamples = 48\nvalue = 0.593", fillcolor="#eeac7d"] ;
877 -> 878 ;
879 [label="NumRotatableBonds <= 0.005\nmse = 0.387\nsamples = 29\nvalue = 0.387", fillcolor="#efb185"] ;
878 -> 879 ;
880 [label="NumRotatableBonds <= -0.422\nmse = 0.564\nsamples = 4\nvalue = -0.039", fillcolor="#f1bb95"] ;
879 -> 880 ;
881 [label="mse = 0.227\nsamples = 2\nvalue = 0.156", fillcolor="#f0b78d"] ;
880 -> 881 ;
882 [label="mse = 1.073\nsamples = 2\nvalue = -0.526", fillcolor="#f4c7a7"] ;
880 -> 882 ;
883 [label="MolLogP <= -0.76\nmse = 0.313\nsamples = 25\nvalue = 0.468", fillcolor="#efaf81"] ;
879 -> 883 ;
884 [label="NumRotatableBonds <= 0.715\nmse = 0.368\nsamples = 11\nvalue = 0.238", fillcolor="#f0b58a"] ;
883 -> 884 ;
885 [label="NumRotatableBonds <= 0.311\nmse = 0.186\nsamples = 7\nvalue = 0.643", fillcolor="#eeab7b"] ;
884 -> 885 ;
886 [label="MolLogP <= -0.809\nmse = 0.065\nsamples = 4\nvalue = 0.461", fillcolor="#efaf82"] ;
885 -> 886 ;
887 [label="mse = 0.017\nsamples = 2\nvalue = 0.11", fillcolor="#f0b88f"] ;
886 -> 887 ;
888 [label="mse = 0.015\nsamples = 2\nvalue = 0.601", fillcolor="#eeac7c"] ;
886 -> 888 ;
889 [label="mse = 0.212\nsamples = 3\nvalue = 1.067", fillcolor="#eca16b"] ;
885 -> 889 ;
890 [label="MolWt <= 0.141\nmse = 0.059\nsamples = 4\nvalue = -0.34", fillcolor="#f3c3a0"] ;
884 -> 890 ;
891 [label="mse = 0.001\nsamples = 2\nvalue = -0.249", fillcolor="#f2c19d"] ;
890 -> 891 ;
892 [label="mse = 0.092\nsamples = 2\nvalue = -0.409", fillcolor="#f3c4a3"] ;
890 -> 892 ;
893 [label="MolWt <= 0.297\nmse = 0.182\nsamples = 14\nvalue = 0.663", fillcolor="#eeaa7a"] ;
883 -> 893 ;
894 [label="NumRotatableBonds <= 0.311\nmse = 0.133\nsamples = 10\nvalue = 0.821", fillcolor="#eda774"] ;
893 -> 894 ;
895 [label="mse = 0.014\nsamples = 2\nvalue = 0.243", fillcolor="#f0b58a"] ;
894 -> 895 ;
896 [label="MolLogP <= -0.671\nmse = 0.092\nsamples = 8\nvalue = 0.91", fillcolor="#eca471"] ;
894 -> 896 ;
897 [label="mse = 0.035\nsamples = 3\nvalue = 1.257", fillcolor="#eb9c63"] ;
896 -> 897 ;
898 [label="NumRotatableBonds <= 1.053\nmse = 0.005\nsamples = 5\nvalue = 0.693", fillcolor="#edaa79"] ;
896 -> 898 ;
899 [label="mse = 0.004\nsamples = 3\nvalue = 0.647", fillcolor="#eeab7b"] ;
898 -> 899 ;
900 [label="mse = 0.002\nsamples = 2\nvalue = 0.739", fillcolor="#eda977"] ;
898 -> 900 ;
901 [label="NumRotatableBonds <= 1.178\nmse = 0.029\nsamples = 4\nvalue = 0.187", fillcolor="#f0b68c"] ;
893 -> 901 ;
902 [label="mse = 0.014\nsamples = 2\nvalue = 0.371", fillcolor="#efb185"] ;
901 -> 902 ;
903 [label="mse = 0.001\nsamples = 2\nvalue = 0.064", fillcolor="#f1b991"] ;
901 -> 903 ;
904 [label="MolWt <= 0.397\nmse = 0.452\nsamples = 19\nvalue = 0.896", fillcolor="#eca571"] ;
878 -> 904 ;
905 [label="MolWt <= 0.213\nmse = 0.354\nsamples = 15\nvalue = 1.013", fillcolor="#eca26d"] ;
904 -> 905 ;
906 [label="MolWt <= 0.122\nmse = 0.282\nsamples = 12\nvalue = 0.837", fillcolor="#eda673"] ;
905 -> 906 ;
907 [label="NumRotatableBonds <= 0.55\nmse = 0.224\nsamples = 9\nvalue = 1.03", fillcolor="#eca16c"] ;
906 -> 907 ;
908 [label="MolLogP <= -0.505\nmse = 0.066\nsamples = 5\nvalue = 0.86", fillcolor="#eda672"] ;
907 -> 908 ;
909 [label="mse = 0.033\nsamples = 3\nvalue = 0.947", fillcolor="#eca36f"] ;
908 -> 909 ;
910 [label="mse = 0.086\nsamples = 2\nvalue = 0.728", fillcolor="#eda978"] ;
908 -> 910 ;
911 [label="MolLogP <= -0.584\nmse = 0.368\nsamples = 4\nvalue = 1.369", fillcolor="#ea995f"] ;
907 -> 911 ;
912 [label="mse = 0.653\nsamples = 2\nvalue = 1.74", fillcolor="#e89051"] ;
911 -> 912 ;
913 [label="mse = 0.025\nsamples = 2\nvalue = 1.122", fillcolor="#eb9f68"] ;
911 -> 913 ;
914 [label="mse = 0.009\nsamples = 3\nvalue = 0.259", fillcolor="#f0b489"] ;
906 -> 914 ;
915 [label="mse = 0.024\nsamples = 3\nvalue = 1.717", fillcolor="#e89152"] ;
905 -> 915 ;
916 [label="MolLogP <= -0.541\nmse = 0.531\nsamples = 4\nvalue = 0.309", fillcolor="#efb388"] ;
904 -> 916 ;
917 [label="mse = 0.415\nsamples = 2\nvalue = 0.595", fillcolor="#eeac7d"] ;
916 -> 917 ;
918 [label="mse = 0.398\nsamples = 2\nvalue = -0.12", fillcolor="#f1bd98"] ;
916 -> 918 ;
919 [label="mse = 0.264\nsamples = 4\nvalue = 1.414", fillcolor="#ea985d"] ;
877 -> 919 ;
920 [label="MolWt <= 0.758\nmse = 0.416\nsamples = 146\nvalue = 0.366", fillcolor="#efb285"] ;
876 -> 920 ;
921 [label="NumRotatableBonds <= 1.053\nmse = 0.404\nsamples = 143\nvalue = 0.38", fillcolor="#efb185"] ;
920 -> 921 ;
922 [label="MolWt <= 0.53\nmse = 0.352\nsamples = 107\nvalue = 0.31", fillcolor="#efb387"] ;
921 -> 922 ;
923 [label="MolLogP <= -0.119\nmse = 0.303\nsamples = 103\nvalue = 0.35", fillcolor="#efb286"] ;
922 -> 923 ;
924 [label="NumRotatableBonds <= -0.422\nmse = 0.274\nsamples = 82\nvalue = 0.429", fillcolor="#efb083"] ;
923 -> 924 ;
925 [label="MolLogP <= -0.211\nmse = 0.584\nsamples = 7\nvalue = 1.155", fillcolor="#eb9e67"] ;
924 -> 925 ;
926 [label="MolWt <= -0.081\nmse = 0.502\nsamples = 4\nvalue = 1.512", fillcolor="#e9965a"] ;
925 -> 926 ;
927 [label="mse = 0.18\nsamples = 2\nvalue = 1.127", fillcolor="#eb9f68"] ;
926 -> 927 ;
928 [label="mse = 0.548\nsamples = 2\nvalue = 1.666", fillcolor="#e99254"] ;
926 -> 928 ;
929 [label="mse = 0.115\nsamples = 3\nvalue = 0.531", fillcolor="#eeae7f"] ;
925 -> 929 ;
930 [label="MolLogP <= -0.187\nmse = 0.186\nsamples = 75\nvalue = 0.357", fillcolor="#efb286"] ;
924 -> 930 ;
931 [label="NumRotatableBonds <= 0.005\nmse = 0.145\nsamples = 68\nvalue = 0.32", fillcolor="#efb387"] ;
930 -> 931 ;
932 [label="MolWt <= 0.064\nmse = 0.135\nsamples = 13\nvalue = 0.529", fillcolor="#eeae7f"] ;
931 -> 932 ;
933 [label="MolLogP <= -0.369\nmse = 0.141\nsamples = 11\nvalue = 0.597", fillcolor="#eeac7d"] ;
932 -> 933 ;
934 [label="mse = 0.161\nsamples = 3\nvalue = 0.265", fillcolor="#f0b489"] ;
933 -> 934 ;
935 [label="MolLogP <= -0.248\nmse = 0.059\nsamples = 8\nvalue = 0.749", fillcolor="#eda877"] ;
933 -> 935 ;
936 [label="MolLogP <= -0.288\nmse = 0.044\nsamples = 6\nvalue = 0.684", fillcolor="#edaa79"] ;
935 -> 936 ;
937 [label="MolWt <= -0.182\nmse = 0.023\nsamples = 4\nvalue = 0.771", fillcolor="#eda876"] ;
936 -> 937 ;
938 [label="mse = 0.014\nsamples = 2\nvalue = 0.923", fillcolor="#eca470"] ;
937 -> 938 ;
939 [label="mse = 0.003\nsamples = 2\nvalue = 0.67", fillcolor="#edaa7a"] ;
937 -> 939 ;
940 [label="mse = 0.032\nsamples = 2\nvalue = 0.467", fillcolor="#efaf81"] ;
936 -> 940 ;
941 [label="mse = 0.065\nsamples = 2\nvalue = 0.861", fillcolor="#eda672"] ;
935 -> 941 ;
942 [label="mse = 0.016\nsamples = 2\nvalue = 0.256", fillcolor="#f0b48a"] ;
932 -> 942 ;
943 [label="MolLogP <= -0.264\nmse = 0.134\nsamples = 55\nvalue = 0.27", fillcolor="#f0b489"] ;
931 -> 943 ;
944 [label="MolLogP <= -0.301\nmse = 0.125\nsamples = 41\nvalue = 0.34", fillcolor="#efb286"] ;
943 -> 944 ;
945 [label="MolWt <= 0.087\nmse = 0.103\nsamples = 32\nvalue = 0.276", fillcolor="#efb489"] ;
944 -> 945 ;
946 [label="MolWt <= -0.09\nmse = 0.097\nsamples = 24\nvalue = 0.334", fillcolor="#efb287"] ;
945 -> 946 ;
947 [label="NumRotatableBonds <= 0.745\nmse = 0.11\nsamples = 14\nvalue = 0.224", fillcolor="#f0b58b"] ;
946 -> 947 ;
948 [label="MolWt <= -0.142\nmse = 0.069\nsamples = 9\nvalue = 0.098", fillcolor="#f0b890"] ;
947 -> 948 ;
949 [label="MolWt <= -0.16\nmse = 0.003\nsamples = 4\nvalue = 0.145", fillcolor="#f0b78e"] ;
948 -> 949 ;
950 [label="mse = 0.0\nsamples = 2\nvalue = 0.108", fillcolor="#f0b88f"] ;
949 -> 950 ;
951 [label="mse = 0.0\nsamples = 2\nvalue = 0.217", fillcolor="#f0b58b"] ;
949 -> 951 ;
952 [label="MolLogP <= -0.359\nmse = 0.13\nsamples = 5\nvalue = 0.051", fillcolor="#f1b991"] ;
948 -> 952 ;
953 [label="mse = 0.131\nsamples = 2\nvalue = -0.312", fillcolor="#f2c29f"] ;
952 -> 953 ;
954 [label="mse = 0.031\nsamples = 3\nvalue = 0.232", fillcolor="#f0b58a"] ;
952 -> 954 ;
955 [label="MolWt <= -0.25\nmse = 0.119\nsamples = 5\nvalue = 0.361", fillcolor="#efb286"] ;
947 -> 955 ;
956 [label="mse = 0.0\nsamples = 2\nvalue = 0.053", fillcolor="#f1b991"] ;
955 -> 956 ;
957 [label="mse = 0.01\nsamples = 3\nvalue = 0.731", fillcolor="#eda977"] ;
955 -> 957 ;
958 [label="NumRotatableBonds <= 0.745\nmse = 0.029\nsamples = 10\nvalue = 0.504", fillcolor="#eeae80"] ;
946 -> 958 ;
959 [label="MolLogP <= -0.425\nmse = 0.024\nsamples = 8\nvalue = 0.458", fillcolor="#efaf82"] ;
958 -> 959 ;
960 [label="MolLogP <= -0.462\nmse = 0.02\nsamples = 5\nvalue = 0.5", fillcolor="#eeae80"] ;
959 -> 960 ;
961 [label="mse = 0.0\nsamples = 2\nvalue = 0.387", fillcolor="#efb185"] ;
960 -> 961 ;
962 [label="mse = 0.015\nsamples = 3\nvalue = 0.613", fillcolor="#eeac7c"] ;
960 -> 962 ;
963 [label="mse = 0.016\nsamples = 3\nvalue = 0.344", fillcolor="#efb286"] ;
959 -> 963 ;
964 [label="mse = 0.022\nsamples = 2\nvalue = 0.631", fillcolor="#eeab7b"] ;
958 -> 964 ;
965 [label="MolWt <= 0.181\nmse = 0.08\nsamples = 8\nvalue = 0.093", fillcolor="#f0b890"] ;
945 -> 965 ;
966 [label="MolLogP <= -0.312\nmse = 0.06\nsamples = 4\nvalue = -0.031", fillcolor="#f1bb94"] ;
965 -> 966 ;
967 [label="mse = 0.003\nsamples = 2\nvalue = -0.147", fillcolor="#f2be99"] ;
966 -> 967 ;
968 [label="mse = 0.09\nsamples = 2\nvalue = 0.086", fillcolor="#f0b890"] ;
966 -> 968 ;
969 [label="MolLogP <= -0.373\nmse = 0.07\nsamples = 4\nvalue = 0.216", fillcolor="#f0b58b"] ;
965 -> 969 ;
970 [label="mse = 0.022\nsamples = 2\nvalue = -0.074", fillcolor="#f1bc96"] ;
969 -> 970 ;
971 [label="mse = 0.031\nsamples = 2\nvalue = 0.361", fillcolor="#efb286"] ;
969 -> 971 ;
972 [label="MolLogP <= -0.269\nmse = 0.12\nsamples = 9\nvalue = 0.632", fillcolor="#eeab7b"] ;
944 -> 972 ;
973 [label="MolLogP <= -0.291\nmse = 0.019\nsamples = 6\nvalue = 0.789", fillcolor="#eda775"] ;
972 -> 973 ;
974 [label="mse = 0.015\nsamples = 2\nvalue = 0.924", fillcolor="#eca470"] ;
973 -> 974 ;
975 [label="mse = 0.003\nsamples = 4\nvalue = 0.708", fillcolor="#eda978"] ;
973 -> 975 ;
976 [label="mse = 0.147\nsamples = 3\nvalue = 0.213", fillcolor="#f0b58b"] ;
972 -> 976 ;
977 [label="NumRotatableBonds <= 0.745\nmse = 0.104\nsamples = 14\nvalue = 0.064", fillcolor="#f1b991"] ;
943 -> 977 ;
978 [label="MolWt <= 0.103\nmse = 0.072\nsamples = 10\nvalue = -0.027", fillcolor="#f1bb94"] ;
977 -> 978 ;
979 [label="MolLogP <= -0.238\nmse = 0.055\nsamples = 8\nvalue = 0.06", fillcolor="#f1b991"] ;
978 -> 979 ;
980 [label="MolLogP <= -0.248\nmse = 0.042\nsamples = 4\nvalue = -0.051", fillcolor="#f1bc95"] ;
979 -> 980 ;
981 [label="mse = 0.043\nsamples = 2\nvalue = 0.172", fillcolor="#f0b68d"] ;
980 -> 981 ;
982 [label="mse = 0.013\nsamples = 2\nvalue = -0.141", fillcolor="#f2be99"] ;
980 -> 982 ;
983 [label="MolWt <= 0.048\nmse = 0.038\nsamples = 4\nvalue = 0.19", fillcolor="#f0b68c"] ;
979 -> 983 ;
984 [label="mse = 0.042\nsamples = 2\nvalue = 0.26", fillcolor="#f0b489"] ;
983 -> 984 ;
985 [label="mse = 0.002\nsamples = 2\nvalue = 0.051", fillcolor="#f1b991"] ;
983 -> 985 ;
986 [label="mse = 0.025\nsamples = 2\nvalue = -0.31", fillcolor="#f2c29f"] ;
978 -> 986 ;
987 [label="NumRotatableBonds <= 0.91\nmse = 0.057\nsamples = 4\nvalue = 0.449", fillcolor="#efb082"] ;
977 -> 987 ;
988 [label="mse = 0.042\nsamples = 2\nvalue = 0.302", fillcolor="#efb388"] ;
987 -> 988 ;
989 [label="mse = 0.03\nsamples = 2\nvalue = 0.596", fillcolor="#eeac7d"] ;
987 -> 989 ;
990 [label="MolWt <= -0.058\nmse = 0.465\nsamples = 7\nvalue = 0.769", fillcolor="#eda876"] ;
930 -> 990 ;
991 [label="mse = 0.0\nsamples = 2\nvalue = 0.508", fillcolor="#eeae80"] ;
990 -> 991 ;
992 [label="MolLogP <= -0.157\nmse = 0.739\nsamples = 5\nvalue = 0.977", fillcolor="#eca36e"] ;
990 -> 992 ;
993 [label="mse = 0.004\nsamples = 3\nvalue = 1.678", fillcolor="#e89253"] ;
992 -> 993 ;
994 [label="mse = 0.0\nsamples = 2\nvalue = -0.074", fillcolor="#f1bc96"] ;
992 -> 994 ;
995 [label="MolLogP <= 0.032\nmse = 0.31\nsamples = 21\nvalue = 0.096", fillcolor="#f0b890"] ;
923 -> 995 ;
996 [label="MolLogP <= -0.001\nmse = 0.255\nsamples = 19\nvalue = -0.001", fillcolor="#f1bb93"] ;
995 -> 996 ;
997 [label="MolLogP <= -0.027\nmse = 0.138\nsamples = 15\nvalue = 0.128", fillcolor="#f0b78e"] ;
996 -> 997 ;
998 [label="MolWt <= 0.381\nmse = 0.108\nsamples = 12\nvalue = 0.048", fillcolor="#f1b992"] ;
997 -> 998 ;
999 [label="MolLogP <= -0.104\nmse = 0.106\nsamples = 10\nvalue = 0.14", fillcolor="#f0b78e"] ;
998 -> 999 ;
1000 [label="mse = 0.008\nsamples = 2\nvalue = -0.103", fillcolor="#f1bd97"] ;
999 -> 1000 ;
1001 [label="MolLogP <= -0.096\nmse = 0.112\nsamples = 8\nvalue = 0.196", fillcolor="#f0b68c"] ;
999 -> 1001 ;
